#ifndef BIASES_H
#define BIASES_H

#include "fixedpointvariables.h"

static const convBias_t convBias1[64] =
{
    -0.96178979, -0.23917986, -0.23212402, -0.2245342, -1.71852744, -0.25244606, -0.70807356, -2.07269645,
    -0.40352401, -0.65268344, -1.05090392, -0.08804913, -0.51288158, -0.19405423, -0.62806863, -1.99370205,
    -0.1056308, -1.53708804, -1.42091131, -2.4368856, -0.81119192, -0.52126473, -2.35101843, 0.10267098,
    -0.17425123, -0.34821951, -1.04184127, -0.47194067, -0.25883618, -0.93448347, -0.3976385, -0.91926754,
    -0.37985542, -1.39156711, -2.16277623, -0.39628947, -0.43708149, -0.66539854, -0.1934417, -0.75807929,
    -1.36432159, -0.74310488, -0.57619452, -1.80293298, -0.38207579, -0.95824027, -0.23958017, -1.23103976,
    -0.84340107, -1.08316875, -0.19093898, -0.26658115, -0.69363737, -1.06321299, -0.18085641, -0.48473349,
    -1.3118434, -1.0116632, -0.45440874, -1.69262898, -2.28522992, -0.32850105, -0.29507414, -0.16844949
};

static const convBias_t convBias2[32] =
{
    1.38078177, 0.61497229, -0.0979044, 0.10951276, 0.9395951, -0.36569968, 0.32815254, 1.99629569,
    -0.51487553, 0.53359699, 0.38837066, 0.47508544, 0.5987981, -0.3531976, -0.345186, 0.22966208,
    -0.64312279, 0.03621775, -0.81974858, -1.0080173, -0.80930585, -0.55046362, 0.38830507, -0.99038774,
    0.45829785, 0.49750188, -0.83388346, -0.30828294, 0.12052306, -0.67455691, -0.51636016, -0.49561849
};

static const convBias_t convBias3[20] =
{
    1.89099491, -1.63357699, 0.78565824, 0.11976691, 0.11266328, 0.97767389, -0.9451701, 1.15197003,
    2.13417959, 1.31600106, 2.19137025, 1.55775428, 2.43998098, -0.33696768, 0.22267036, 0.05184819,
    1.89320993, 0.86569667, 0.3452571, 0.02563094
};

#endif // BIASES_H
