#ifndef KERNELS_H
#define KERNELS_H

#include "fixedpointvariables.h"

static const convKernel_t convKernel1[3 * 3 * 3 * 64] =
{
    0.776161611, 0.960672736, 0.501330853, -0.0839314014, 0.0849607587, -0.236998945, -0.701947451, -0.49823603, -0.831269681, -0.375436038, -0.235546052, -0.145647064, -0.19817476, -0.0770766437, 0.172998577, 0.113085106, 0.368813097, 0.190903366, -0.590038419, -1.02304041, -0.990824044, 0.34395197, -0.211967528, 0.166397199, 0.689246237, 0.580548346, 0.73848021, -0.248498544, 0.532902658, -0.114559136, 0.850490451, -0.907708168, -0.0484563261, -0.222118035, -0.0983766839, 0.253183335, 0.129757226, 0.277748853, -0.138431922, 0.656847954, -0.851032734, 0.0331506543, -0.27159825, 0.0192192756, 0.233487174, -0.220828012, 0.21448344, -0.148276687, 0.421520531, -0.312666774, -0.0910729915, -0.347034991, 0.363592774, 0.166777715, 0.160512999, 0.182326347, -0.364792466, 0.385195374, -0.0468360633, -0.392562687, -0.664498329, 1.35372913, -0.6511814, -0.671234488, -0.09752848, 0.418289959, -0.440995336, -0.338616192, 1.21986139, -1.28876436, 0.332743227, 0.769053221, 0.18518658, 0.181453317, -0.362250239, 0.916078806, -0.616052806, -0.37228322, 0.638105512, 0.444654346, -1.25522435, 0.850527585, -0.0735485926, -0.360680759, 1.10835779, -0.678681195, -0.749755681, 1.37038946, -0.928194165, -0.522105336, -0.0819130465, -0.0361909047, 0.118129097, -0.40887779, 0.0111070881, 0.426982552, -0.675436616, 0.156311557, 0.638241231, -0.76557523, 0.145611733, 0.294857174, -0.819815636, 0.722914159, 0.36281544, -0.874994516, 1.03601825, -0.0991380811, -0.134358436, -0.227705017, -0.209404349, -0.292097896, 0.255590022, -0.242232591, 0.192634299, 0.31244415, -0.0923550576, 0.353851765, -0.0404979438, 0.186355874, -0.233131021, 0.306193888, 0.161740556, -0.331896186, -0.262367189, -0.158755183, 0.646746457, -0.338225007, 0.298288018, 0.398557514, 0.346881628, 0.506182671, -0.735856473, -0.927651286, -0.794091165, 0.222376049, 0.201436713, 0.156536505, -0.374502093, -0.370737493, -0.212868825, -0.0528255403, -0.347835094, 0.482853472, 0.349978298, 0.362943858, 0.655830801, -0.548370063, -0.35968405, 0.00447120611, -0.671005666, -0.647856712, -0.267797977, -0.680413187, -0.569852173, -0.735022664, 1.01633596, 0.976357043, 0.128087223, 0.674728632, 0.878242016, -0.108379133, 0.181620896, -0.0089564966, -0.129744604, -0.103811413, -0.000247648975, -0.00347914617, -0.0566490553, -0.107802495, 0.11075931, -0.488686204, -0.109191529, -0.207997873, -0.147920385, 0.103236184, -0.14825207, -0.108678415, -0.18543905, 0.0417783819, -0.00325711421, 0.0179515891, 0.323955238, 0.0856090635, 0.205345452, -0.000758072187, -0.202624112, -0.442397952, -0.226139322, 0.152826503, 0.467083484, 0.135364801, 0.172141477, -1.26542735, 0.13478978, 0.354932934, -0.0459278747, 0.250292033, 0.269330323, 0.426069826, 0.582006931, 0.131161943, -1.36560237, 0.0490492135, 0.102761798, -0.535936415, -0.0153195579, -0.130769327, 0.216746598, -0.184891701, 0.00966312177, -0.55385083, -0.00535163749, 0.0336832404, 0.167038724, 0.161183283, 0.134166867, -0.0685884506, -0.456306458, 0.146033943, 0.681099355, 0.136496693, -0.439775079, -0.192835748, 0.188678965, 0.132539779, 0.0776030272, 0.140560657, 0.00476626679, 0.124922022, -0.177327201, -0.122705854, -0.134233251, 0.0832230374, -0.0107530113, -0.656729102, -0.254315108, 0.367716372, 0.12626414, -0.878584087, 0.265743375, 0.544826806, 0.528308988, 0.096200861, -0.639785826, -0.271533459, 0.5382936, -0.103413679, -1.00403714, 0.761640906, 0.758381665, -0.283184022, 0.0651805401, 0.533522427, 0.666349053, -0.762621284, -0.0160889793, 0.935278714, -0.450376958, -0.725640595, 0.162994385, 0.0558659136, 0.422111183, -0.264873207, -0.582232893, 0.310062051, 0.881229997, -0.36753878, -0.828801572, 0.212008148, 0.0456986539, -0.155492291, 0.219290286, 0.206740186, 0.0619207062, 0.180319503, -0.182393327, -0.289142668, 0.143565327, 0.120083869, 0.0967009738, -0.214739263, 0.18442601, -0.0431125462, -0.336960256, 0.135143712, -0.116198041, -0.117434911, -0.708921254, -0.445417076, 0.519183338, -0.787472725, -0.303854674, 0.266331106, -0.338495165, 0.672246277, 0.832218587, -0.108104669, 0.03867428, 0.207431376, -0.342795819, 0.128259733, 0.204997003, -0.0300388671, -0.0163536984, 0.128661111, 0.0854424164, -0.536525905, -0.511870384, 0.00169315166, 0.0221886169, -0.257189453, 0.0574207418, -0.272837728, -0.474200934, 0.133266017, -0.00430303905, 0.0957279205, 0.0817951411, 0.269494236, 0.473420918, 0.424839795, 0.0675371066, 0.100101568, 0.464021564, 0.914473295, 0.702628016, -0.982701838, -0.661480963, 0.66760844, -0.184044555, -0.892702758, 0.0463108718, 0.060565982, 0.469916552, 0.0413589925, -0.326390535, -0.189857572, 0.16845344, 0.113173395, -0.166555211, -0.258455992, -0.207169175, -0.512185514, -0.711992204, 0.739598989, 0.470229805, -0.321976304, 0.208996788, 0.813679516, -0.0988249928, 0.103624657, 0.410686314, -0.438615084, 0.343194574, -0.779025495, 0.351606578, -0.0774561316, 0.287986606, -0.225079551, 0.390102684, -0.302897543, -0.298726529, -0.330912739, -0.85405302, 1.0607096, -0.707620144, 0.658000708, 0.201440305, 0.101410113, 0.355677873, -0.527525961, 0.365377128, -0.590186417, 0.199918717, -0.172193184, 0.370145172, -0.180823252, 0.211331755, 0.170327917, -0.104644291, -0.627951801, -0.441616356, -0.121874526, 0.307325363, 0.42943722, 0.165179983, 0.314871728, 0.16066885, -0.17777966, -0.465652257, -0.509496033, -0.341527462, -0.312802702, 0.432535201, 0.418058217, 0.401673377, 0.411949188, 0.386652678, 0.560632586, -0.0473576896, -0.0289283749, -0.224915415, -0.484265685, -0.593611419, -0.468664974, 0.759450257, -0.0307850968, 0.11178831, 0.197218135, -0.624105871, -0.0119302245, -0.114383869, -0.281657338, -1.05442131, 0.224909082, 0.458390355, -0.158172667, 0.339507818, 0.0980788618, 0.06095355, 0.154008687, 0.125891984, -1.15898693, 0.0278784391, -0.0758771151, 0.398833066, 0.600809395, -0.0726074725, 0.474378943, 0.109878235, -0.192114711, 0.191000968, -0.661756039, 0.436426699, -0.734225154, 1.14160645, -0.551271737, 0.275343746, -0.442438632, 0.34698382, 0.590656042, -0.500959575, 0.362615824, -0.369473398, 0.903808296, -0.827348292, 0.472673953, -0.948598027, 0.302005321, -0.247530147, -0.740455925, 0.544695079, -0.71086657, 1.4849813, -0.381174594, 0.533342004, -0.318102658, -0.0695996433, 0.334794462, 0.374272764, -0.572431743, 0.16407229, 0.265112638, -0.0984289274, -0.21959585, -0.26991272, -0.364058495, 0.477782935, 0.297648817, 0.275018126, 0.179663718, -0.2294361, 0.153600886, 0.259470522, -0.0989383459, 0.147291645, -0.618088484, -0.553836048, 0.20699805, -0.676821947, -0.661907196, 0.132324368, -0.084367387, 0.122725733, 0.31708169, 0.108155064, -0.381361634, -0.103087336, -0.297290921, -0.245277449, 0.125596195, -0.403575987, 0.545205891, 0.260077149, 0.103091255, -0.197794065, 0.115465343, -0.106662497, -0.0556389242, -0.127273455, 0.0456461273, 0.361473888, -0.504998326, 0.277952284, 0.319318503, 0.257141769, 0.284636527, 0.449461699, -0.363823175, 0.479539901, 0.399752349, -1.36234081, 0.253502578, 0.260740548, 0.454341531, -0.00279023871, -0.0645792484, 0.0431026854, -0.34680897, 0.243834794, -0.360868305, 0.140705064, 0.163773388, 0.133331999, 0.0391394049, 0.0474885292, 0.0980154648, 0.024191821, 0.879385471, 0.0540702529, -0.411564648, -0.340898514, -0.470112234, -0.00539649371, -0.136012346, -0.0913418755, 0.38435626, 0.934584796, 0.195782676, 0.368827283, 0.294260502, 0.117766045, 0.385548323, 0.239898309, -0.319206178, -1.06062388, -0.293321669, -0.363013923, -0.57084614, -0.494411796, 0.000903377077, 0.828735888, 0.395104438, 0.0205945186, -0.00560013764, 0.339148581, -0.0120757986, -0.496349752, -0.320197403, 0.361549884, 0.507831454, -0.186260059, 0.211920455, -0.25158146, -0.16460523, 0.241567016, -0.286423177, -0.386789829, 1.13421226, 0.411924154, -0.639815748, -0.267196327, -0.224258274, 0.439905643, -0.00817280635, -0.0176538676, -1.01911688, 0.297779649, 1.05208087, -0.43728596, -0.974990368, 0.270296574, 1.06050181, -0.468531132, -0.330113322, 0.347443849, 0.279776961, -0.0845393538, 0.0893208012, 0.326001495, -0.542091668, -0.0359266102, -0.127664492, 0.364328504, 0.0776772648, -0.0329544172, -0.079599835, -0.168126926, -0.0493190959, -0.00197178242, -0.0276968088, -0.124436744, -0.582785547, -0.702163577, -0.521559417, -0.409567684, 0.215648621, 0.545290768, 0.0253300555, 0.632046819, 0.697421312, 0.131404102, -0.260100096, -0.475023806, -0.154830024, 0.0102060121, 0.0467592254, -0.224852026, -0.231428832, -0.335734665, -0.182979569, -0.305448174, -0.25552237, -0.0312559456, -0.0797960311, -0.0914065167, -0.339935154, -0.00196628086, -0.386485189, 0.210263386, -0.0520233288, 0.0603706501, 0.258130342, 0.0817479715, -0.057439182, -0.025814224, 0.295550406, 0.103887916, 0.0958177596, 0.152353883, 0.494600683, -0.00344370026, -0.0860862955, 0.00671600504, -0.121055484, 0.186564967, 0.322716296, -0.224659115, -0.124949954, 0.379672438, -0.30063802, -0.15088062, 0.477470368, -0.321310163, -0.350850314, 0.574708045, 0.457562417, 0.276713103, -0.651767075, 0.463790983, 0.332108259, -0.651707649, 0.511134028, 0.0242791325, -0.675309658, -0.168185726, 0.372100681, -0.317675591, -0.0712392777, 0.559054554, -0.325132966, -0.214399159, 0.78102839, -0.590085804, -0.0859970152, 0.750285625, 0.0702002347, 1.0234071, 0.0475938506, -0.255972445, -0.52049768, -0.952708066, -0.0390405394, 0.645783067, 0.266480029, 0.361036837, 0.569822609, -0.404974073, -0.238011092, -0.0176833533, -0.939785182, -0.269423485, -0.822737575, -0.560707271, -0.28901881, -0.943199158, 0.297558844, 0.325805426, 0.325604707, 1.25071049, 0.365092635, 0.567903101, 0.676995516, -0.135271937, 0.572679222, -0.0603342727, -1.02909005, 0.318997741, -0.579595864, -0.296109527, 0.024366783, -0.00859691296, -0.063629508, -0.107324429, -0.0701267943, -0.132892996, -0.0451136418, -0.214816913, 0.318425655, -0.21851708, -0.0520809218, -0.123553127, 0.0213039778, 0.191789523, 0.0593109243, 0.013323443, -0.00810165145, -0.0904714391, -0.884378314, 1.09962547, -0.550173521, -0.595233083, 1.0487746, -0.467924386, -0.243050188, 0.673751652, -0.120875381, -0.0918642059, 0.199906215, -0.332743347, 0.294342071, 0.431280643, -0.110654451, -0.0594680123, -0.069575116, -0.360110134, 0.0751179829, 0.322161168, 0.116274588, -0.41404286, 0.0692141429, -0.303219318, -0.161677763, 0.182007313, 0.0847652107, 0.0782794952, -0.243140578, -0.1475811, -0.052325502, -0.297589362, -0.178460732, 0.278782248, -0.0729663298, 0.457754493, 0.153875411, 0.681091964, 0.277055502, 0.393737346, 0.782101989, -0.455272734, -0.0360474512, -0.382337302, -1.12669861, -0.869018316, -0.367547393, 0.186852649, -0.565283656, 0.501939833, 0.478769839, 0.0557301752, 0.571951926, -0.0305684768, -0.0615172535, 0.0738672912, 0.0578781627, 0.0441446118, 0.187879741, -0.0775025487, -0.166213676, 0.0861263946, -0.0230434518, -0.387997597, 0.0264081284, 0.429438084, 0.177944973, 0.330681652, -0.108412795, 0.352540553, -0.161926895, -0.378738105, -0.181116894, 0.43944791, 0.245654002, 0.423906714, 0.334639162, -0.470736593, 0.0787807629, -0.547272086, -0.565977693, -0.0192909949, 0.672177613, -0.668457866, -0.779995799, 0.337664515, 0.561712205, 0.370340943, -0.800394833, 0.39183706, -0.23248595, 0.371331096, 0.056767635, -0.58560288, -0.0977516174, 0.456548125, 1.22776926, -1.06120443, -0.381881326, 0.133367315, 0.114972457, -0.309276879, -0.448011458, 0.563041925, -0.09973488, 0.0189665779, -0.397172391, 0.3813169, -0.299065948, 0.547048271, -0.559718966, -0.454478621, -0.123740114, -0.229411811, 0.085809432, -0.219169393, 0.181298792, 0.164460033, 1.09643722, -0.0688454285, -0.205351993, 0.190953672, -0.165275857, 0.0347622633, -0.189300239, -0.204465598, -0.213091746, 0.151062489, -0.144187614, -0.217172161, -0.115355156, -0.128129795, 0.273597836, 0.176859632, 0.104605407, 0.288093448, -0.928277075, -0.164417997, 0.780953765, 0.55005759, -1.11717439, -0.464572728, 0.612899423, 0.338135988, -0.130670995, -0.0447812267, 1.21350622, -0.336021721, 0.0914848521, 0.0990664735, -0.672763288, -0.555233717, 0.137656778, 0.0615926012, -0.398898989, -0.15707621, 0.416211337, 0.447624743, -0.708665729, -0.0296072476, 0.303003311, 0.221714765, -0.181038007, 0.275409043, 0.00908076577, -0.29171297, 0.0524069965, -0.232459605, -0.104681499, -0.0535122678, 0.0481675118, 0.359582722, 0.223103061, -1.04266989, -0.0131838899, 0.578370333, -0.293421298, -0.113109238, 0.377833605, 0.559607089, 0.107851341, 0.577800095, -0.43513909, -0.339933485, 0.55433917, 0.0370769389, -0.556614816, -0.166562796, 0.280387878, -0.679351091, -0.365742862, 0.250503689, 0.202445865, 0.412026167, 0.359467447, 0.883560896, 0.423287541, -0.306270927, -0.216383234, -0.429001719, -0.230408356, 0.105070472, 0.213261068, -0.0192705151, 0.570334315, 0.217921287, -0.20865725, 0.793644905, 0.411622018, 0.27776587, -0.050889954, -0.270483017, 0.040638186, -0.766775489, -0.757523715, -0.0949988514, -0.699419677, 0.471677125, 1.00307655, -0.89519459, -0.267650217, 0.880717158, -0.22443147, -0.354453892, 0.207710043, 0.362844169, -0.172720075, -0.266690731, 0.268303841, -0.116384581, -0.190186888, 0.176943079, -0.0403822586, -0.0277364329, 0.612991571, -0.37547493, -1.10522127, 1.01104128, 0.351312071, -0.920610189, 0.349472106, 0.413823158, -0.287344754, -0.235205591, -0.813470364, 0.351903528, -0.935130119, 0.454048455, 0.770880401, 0.643306971, 0.884494841, -0.778902709, 0.267562777, -0.320626944, 0.0809086263, -0.478039503, -0.126889735, 0.0997857824, -0.142183691, 0.165920824, 0.0437591262, 0.301920652, 0.0121243801, -0.235151485, -0.130691737, 0.107745364, 0.0824693367, 0.0370076559, -0.0840165988, -0.0268851295, -0.424594849, -0.249666333, -0.279172927, -0.254428506, -0.547881722, 0.11771705, 0.323283404, -0.467785925, 0.45476225, 0.696346879, 0.775874794, 0.288938761, 0.266509891, 0.120002292, 0.0644135401, 0.312751621, -0.276607811, -0.260777742, -0.416269749, -0.204587609, -0.264939129, -0.144198433, -0.121441193, 0.250798047, 0.122809507, -0.153030366, 0.286572754, -1.15093899, -1.64769435, -0.959753156, 0.581861973, 0.320952535, 0.253472626, 0.76559633, 0.978213191, 0.953372061, 0.946552336, 1.14361751, 0.879877865, -0.106995851, 0.00123242545, -0.163728058, -0.940591037, -0.922502697, -0.891684532, 0.137577012, 0.529292285, 0.135814101, -0.416877806, -0.301759452, -0.105889007, 0.130966142, -0.0402853042, -0.0387358405, -0.333046377, -1.26908195, 0.403979599, -0.820958734, -0.753788292, 1.16398036, -0.189472198, 0.538790524, 1.59976971, 0.591474891, 0.469817251, -0.111357175, 0.267934829, -0.0442939773, -0.582443893, -0.03656625, -0.352852076, -0.583630145, -0.110169679, 0.661590517, -0.342437655, 0.501062512, 0.744077027, -0.303918183, 0.264788032, -0.139606133, -1.22303712, -0.028390348, -0.0956639722, 0.0222488455, -0.223566696, 0.197546855, -0.254576862, -0.498158634, 0.187312469, -0.366701543, -0.230942056, -0.376006275, -0.295652181, -0.0138775287, 0.334843248, -0.0946531072, -0.324517727, 0.479696453, 0.117197894, -0.176870361, -0.238518462, -0.0600076206, -0.291021466, 0.335990399, 0.140190154, -0.600397706, 0.564785421, 0.279854, 0.138027295, 0.062894702, -0.0519331135, 0.026516024, 0.0235512387, 0.0612003691, 0.0295967627, 0.115906343, 0.0278140213, 0.0319015644, -0.339897454, -0.325807571, -0.240255117, -0.620182872, -0.446330905, -0.261223704, -0.529079378, -0.301857024, -0.377542704, 0.391001433, 0.33037293, 0.240867779, 0.849242687, 0.373602211, 0.13641496, 0.591510236, 0.0624693893, -0.425205976, -0.468298048, -0.376353085, 0.348954976, 0.0658017024, 0.047206752, 0.55115217, -0.0410694629, 0.456389129, -0.13726452, -0.128815815, -0.0482368805, 0.125734031, 0.128590077, 0.104590222, 0.0674458817, -0.212921605, 0.232048005, -0.155226633, -0.0595473424, -0.0967702419, 0.361072481, 0.411609113, 0.297531366, -0.0884070024, -0.45873794, -0.00605009962, -0.165925622, 0.149155766, 0.740053535, -0.208795398, -0.538976848, 0.289457321, -0.0867039636, -0.252788961, -0.28333801, -0.18145223, -0.249098599, -0.269714832, 0.601991773, -0.0593849309, -0.282025427, 0.764670908, 0.466656208, -0.406395197, -0.577605426, -0.344650626, -0.196080923, 0.373241723, -0.0555416718, -0.0538713075, 0.220807731, 0.267627776, -0.206866369, 0.0533015616, 0.201655835, 0.151055649, -0.151536584, 0.0246955976, -0.119788498, -0.115243331, 0.0645690262, -0.0913435593, -0.538357079, 0.154276162, 0.48209691, -0.231250435, 0.204506487, 0.214839637, -0.615565836, -0.166924745, 0.330182791, -0.384085029, 0.064855285, -0.189625874, -0.0433666743, 0.254916668, 0.0647297427, -0.176071778, 0.373271614, 0.0133305062, 0.524923921, -0.106976144, -0.544252157, 0.280171096, -0.365637511, -0.0671028122, -1.05818033, -0.177044168, 0.969477713, 0.318798721, -0.134659708, -0.526125968, 0.272105217, -0.341673434, -0.10042087, -0.429569036, 0.0701081455, 0.775682688, -0.200456545, 0.268810302, 0.32718575, 0.375701219, 0.107258379, -0.244661018, 0.108285852, -0.0232415237, -0.531045258, 0.14703925, 1.12327349, -0.418166548, 0.346150607, 0.440421999, -1.03446269, 0.00314451777, 0.0362350941, -0.938594759, -0.411576331, -1.05381191, 0.466057092, -0.309412092, -0.413799673, 1.12457371, -0.192659691, 0.0976279378, 0.800243139, 0.369627476, -0.831648469, 0.187714353, -0.261058003, -0.417649537, 0.673320591, -0.0201059096, 0.303101838, 0.114393413, -0.733614743, -0.527854383, 0.0973225161, -0.610858321, 0.084233813, 0.422202677, -0.685959399, 0.119827785, 0.647927821, 0.146301255, 0.327905953, 0.132477984, 0.807564378, 0.42346707, -0.342547476, 0.472649544, -0.321820825, -0.322807938, 0.357097596, 0.112196118, 0.0876308158, 0.687985539, -0.00242646853, -0.556879163, 0.327090144, -0.700811327, -0.371956557, -0.11363668, -0.0751667693, -0.12804164, -0.0104617616, 0.270614713, 0.0890363082, -0.221075118, 0.0807894394, -0.0431700423, -0.557499766, -0.0162469111, -0.466865629, -0.129745647, 0.531581044, -0.20924522, -0.164455682, 0.495936215, -0.316507876, -0.129326463, 0.564706624, 0.116612092, -0.278707981, 0.51954335, -0.109566964, -0.386478275, 0.540676296, -0.0476430543, 0.724750638, -0.888901412, 1.04387295, -0.326152146, 0.363510758, 0.26908645, -0.383035868, 0.11135605, -0.273662537, 0.685754776, -1.15243769, -0.117039733, -0.0384858698, 0.572873175, -0.605833352, -0.0976060927, 0.410553664, -0.255825907, 0.512910903, -0.461417317, 0.804388165, -0.65658927, 0.366005868, -0.292503655, -0.31272155, 0.468330026, -0.257138878, 0.486624628, -0.195564672, -0.126839459, 0.135902181, -0.067741029, -0.0112975985, -0.0881358013, -0.114469729, -0.0450648218, -0.156995565, -0.0143943653, 0.17447263, -0.023662556, -0.135969624, 0.191030845, 0.045179721, 0.0141181834, -0.139141575, 0.362121344, -0.617975771, 0.0790634155, 0.767194748, -0.541666687, -0.191087082, 0.432479888, 0.0790660754, -0.358281076, 0.263595402, -0.276372373, 0.325017005, 0.0154084321, -0.604095817, 0.212425634, 0.179749385, -0.571951687, 0.57507515, 0.137383699, -0.758939803, 0.111710645, 0.862758398, -0.778557062, 0.644876063, 0.602371633, -1.00602472, 0.172949269, -0.105215229, 0.188048214, -0.0377079993, 0.152717367, -0.197139665, 0.14752996, 0.0959931687, -0.33599472, 0.182284683, -0.53934449, -0.497104824, -0.607173502, 0.962105691, 0.521602809, -0.366557568, 1.19058561, 0.752762735, -0.686544299, 0.507644236, 0.493636936, 1.20943761, -1.46686268, -1.06611109, 0.631038845, -1.7266587, -1.29636443, 0.887169778, 0.011679315, -0.0314943977, -0.504665315, 0.359449893, 0.385661215, -0.333553284, 0.679270685, 0.573572934, -0.0957218111, 0.189281926, 0.885807395, 0.204142421, -0.368852407, 1.1090554, 0.519811869, -1.08676863, -0.200711295, -0.461769611, -0.28791818, -0.658993661, -0.616601348, 0.0493435562, -0.358787805, -0.504218876, 0.884901166, 0.176816523, 0.112361245, -0.0666345954, -0.158291385, 0.359725624, -0.116981074, -0.3970626, -0.219735518, 0.287932664, -0.0863559097, 0.256797731, 0.470552921, 0.360117257, 0.550497055, 0.00347195379, -0.844358742, -0.28241387, 0.0750292987, -0.952164054, -0.321847975, -1.15080583, -0.382907093, -1.46502197, -0.326102614, 2.00035667, 0.378403872, -0.283802092, 2.31864357, 0.584616959, 0.771256208, 0.0346839353, 0.875133276, 0.238495275, -1.27104723, -0.115406133, 0.23549065, -1.49682832, -0.266193479, 0.282166719, -0.205392405, -0.836751282, 0.635857761, 0.158839837, -0.687421322, 0.604668796, 0.404627264, -0.375020921, 0.266000718, -0.121142909, -0.184567779, 0.216670677, -0.260448307, -0.174259275, 0.497397155, -0.0784565359, -0.229443505, -0.571562529, 0.466801643, 0.631069124, -0.649018228, 0.102461956, 0.733080685, -0.731170475, -0.370595694, 0.266302407, -0.430119514, 0.0141184973, -0.344051182, -0.5024333, -0.730358899, -0.230669796, 0.537994862, 0.626779675, 0.609598637, -0.00829896051, 0.265080392, -0.219721243, 0.0157359131, -0.105338089, 0.0338188782, 0.272728473, 0.314435542, -0.0121431826, -0.138562799, 0.262041658, -0.110618524, -0.0214116052, -0.296710759, 0.0690555125, 0.0385998972, 0.0523340777, -0.147495762, -0.459248364, -0.391044199, 0.868117452, -0.454378754, -0.472836316, 0.681256294, -0.525170803, -0.685685992, 0.675728679, 0.187151015, 0.150004938, 0.304644734, 0.0681126416, -0.0351264216, -0.172861218, 0.170170039, -0.0522728413, -0.0425796807, -0.264885813, 0.00741179613, -0.121162541, 0.0841672793, 0.180854484, -0.326769978, 0.0879336372, 0.355483592, -0.131557316, -0.10034012, -0.0811052024, -0.0749045908, 0.0407426581, 0.104609162, 0.124732025, 0.0909130946, -0.0667517409, 0.0185467638, -0.093153879, -0.320198715, -0.173144415, 0.372261286, 0.734841764, 0.724068522, -0.358055592, -0.622599602, -0.610006988, -0.0983139873, -0.42696324, -0.311918259, 0.406660616, 0.497205049, 0.552241206, -0.133252695, -0.221618578, -0.164534017, -0.81231451, -0.82943517, -0.733813882, -0.362382203, -0.458588868, -0.414800823, 0.376956493, 0.608513594, 0.609634697, 0.127310336, 0.178498, -0.0643757805, 0.290373266, 0.293688029, 0.090112187, -0.0174602624, 0.00412146701, -0.0649658367, 0.277395099, 0.316649675, 0.43476364, 0.20329681, 0.154857963, 0.200050324, -0.50373596, -0.508427799, -0.324462235, 0.681686759, -0.1340615, -0.857287288, -0.0785024315, 0.228624389, 0.500665605, -0.227690518, -0.00139287615, 0.377541065, 0.233127564, -0.410050124, -0.772365212, -0.128661335, 0.0218286831, -0.0649800822, 0.217387587, 0.177362978, 0.0444499925, 0.254172564, -0.030326955, -0.539720953, -0.0642205179, 0.485793769, 0.108331695, 0.0582374707, 0.0570721701, -0.429839879, 0.252034932, 0.872895718, -0.123791896, 0.0370484889, 0.0710067078, 0.052622579, -0.26842466, -0.123517863, -0.164849773, -0.263439596, -0.148561463, -0.242709979, 0.202999607, -0.162231147, -0.0670856014, 0.422749579, 0.247361466, 0.229505524, -0.0149430595, 0.627339661, 0.345025688, -0.179008096, 0.0780765191, 0.0629022121, -0.204715386, -0.0689455569, -0.0134706739, 0.188880607, 0.239753649, 0.531779289, -0.247100547, -0.501374424, -0.692254126, 0.253046215, 0.000106123742, 0.162537113, 0.0320874117, 0.187041059, 0.565523446, -0.491280079, -0.358803958, -0.724537075, 0.388979018, 0.334531784, 0.128365666, 0.131984979, -0.0651236922, -0.160519481, -0.205780342, 0.157921091, -0.19215101, -0.0724048615, 0.181414127, 0.229521975, 0.134451225, 0.333602965, 0.285947531, -0.68556577, -0.307364017, -0.132519871, -0.561369956, -0.271069378, -0.226831779, 0.238248363, -0.0963920131, -8.23019072e-05, 0.349493325, 0.127179429, -0.00999592431, 0.183312058, 0.130648509, 0.0814887732, -0.315992177, -0.573934793, -0.737369597, 0.471821934, 0.478809536, 0.15693976, 0.130053267, 0.0628211498, 0.28695634
};

static const convKernel_t convKernel2[3 * 3 * 64 * 32] =
{
    0.330894768, 0.184607208, 0.0678422004, -0.18677482, 0.0448137075, -0.119920775, -0.359532535, 0.0823620409, 0.189994678, -0.12202806, -0.370077789, -0.072314553, 0.218049601, -0.14809303, 0.000999526004, 0.221002862, 0.0358064696, -0.0431159511, -0.0244291797, -0.222747669, -0.269839942, 0.263679206, -0.0792375952, -0.0023792854, 0.0496399291, 0.160304993, -0.00996382069, 0.395434797, -0.0428805128, -0.0352305509, 0.182132423, -0.211426064, -0.289463729, 0.555917144, 0.332142144, 0.214638129, 0.158428147, 0.34829241, 0.383101016, 0.0969857126, 0.153975263, 0.237410709, -0.0255171992, -0.113524824, -0.0655987039, -0.121508218, 0.124749184, -0.218405455, -0.0482730679, 0.426920176, 0.274830312, -0.369927227, 0.0440458059, -0.00209519081, -0.39754957, -0.261026919, -0.29652831, 0.268320799, 0.414053649, 0.362318188, -0.106679298, -0.0714162737, -0.152208582, 0.0220753737, -0.0887816995, -0.157824054, -0.126587659, 0.188883141, 0.0529705323, -0.125108868, 0.060771402, 0.0902145356, -0.256329834, -0.137969628, -0.315710604, 0.0821913928, 0.0597165972, -0.109124616, 0.0145867467, 0.00415666029, -0.238915056, -0.37533325, -0.25138247, -0.13519007, -0.0477151796, -0.271165401, -0.30565688, 0.0809626505, -0.0347995274, -0.210178167, -0.091685541, 0.136418805, -0.0873235464, -0.150851756, -0.198113859, -0.387596428, -0.117786199, 0.108106777, 0.0197911579, -0.144921631, -0.0974334329, -0.343280196, 0.096006088, 0.312818289, 0.0176048372, 0.0723537281, 0.213454425, -0.0422600172, -0.120081007, -0.0158720352, -0.0265860148, 0.0577321388, 0.0132038528, 0.0818494037, 0.133117318, 0.137431711, 0.108869188, -0.162751913, -0.157430902, -0.147878066, -0.157925874, -0.261351168, -0.230617136, 0.367526472, 0.192250028, 0.0890176892, -0.080154337, -0.0516006723, -0.042968303, -0.0195330549, -0.0428537577, 0.00655066827, 0.145264149, -0.112526946, -0.188179985, 0.46082142, 0.275063038, 0.0662217215, -0.369287461, -0.14467825, -0.0182470493, -0.10402301, -0.103521228, 0.0967219397, 0.0517985374, -0.140468284, -0.314276785, 0.169022337, -0.349533945, -0.131606385, 0.348633558, 0.202235207, 0.0254373383, -0.0816978291, 0.00519437622, 0.0906273946, -0.0909016654, 0.132794604, 0.0363319963, -0.308422267, -0.0453324877, -0.115096174, -0.112445369, -0.103826977, -0.0999575332, 0.0541004576, 0.082369633, 0.0600633398, -0.175118953, 0.0123760095, -0.261483848, -0.243069947, -0.136565924, -0.0192439239, -0.236535311, 0.0183490645, 0.0723483786, -0.238260463, -0.0756498575, -0.197866395, 0.174943045, -0.0848324075, -0.0305514634, 0.0370675884, 0.00514535513, -0.137711033, 0.199235573, -0.0272825807, -0.0984174088, 0.0811593756, -0.00581216905, -0.106519088, -0.311021209, -0.236759484, -0.152395755, -0.0671823621, -0.152630135, -0.117012985, 0.199434966, 0.0771864727, 0.147190556, -0.0557624735, 0.0616454221, 0.0235285461, 0.0931232199, 0.0574583896, -0.125495911, 0.0715218857, 0.197361514, -0.196715757, 0.304873794, 0.446006417, 0.00136988587, -0.199153781, 0.146556169, -0.265746981, -0.511013329, -0.122296385, -0.0398544371, -0.141636387, -0.363513798, 0.165088415, 0.332613498, -0.190303773, -0.0157027487, 0.235127226, 0.110785365, 0.0821203813, 0.0313456655, -0.107664376, -0.0141149685, -0.0823316053, -0.0632605478, 0.115270235, -0.314971805, -0.333120406, -0.0414370522, -0.157625139, 0.0765333101, 0.112996615, -0.17744109, -0.134191856, 0.0437962078, 0.0260248128, -0.12034975, 0.061806798, 0.175564468, 0.0596889481, 0.284417242, 0.114254408, 0.0480826795, 0.141822606, 0.0311676487, -0.125472948, -0.0354790874, 0.158852667, -0.314615816, -0.0617389828, 0.0615654625, 0.00192720233, -0.112294979, -0.0185059309, -0.0422368087, -0.101159826, -0.32670629, 0.0766736791, 0.00341329374, -0.0584565587, 0.13626647, 0.0618990436, -0.0935887247, -0.107627623, -0.0841507837, -0.0931429639, -0.245448366, -0.176966161, 0.0881945863, -0.0640944839, 0.015794944, -0.0522048026, 0.0656194538, 0.125595957, -0.111020029, 0.237762928, 0.0434699766, -0.0784925893, 0.20783481, 0.135541171, -0.404722244, -0.280093908, -0.159540117, -0.241546109, -0.408875674, -0.251646161, 0.151202217, 0.0167435668, 0.0669336617, -0.176828757, -0.00638324767, -0.016687667, -0.00211829157, 0.00433558179, -0.127052322, -0.114327319, -0.0302364398, -0.171174616, 0.170731619, 0.17740798, 0.136613384, -0.038007386, 0.140621156, 0.148758784, -0.209723473, -0.0464336351, 0.114063829, -0.0129381111, 0.116412967, 0.0315621495, -0.334104776, -0.340508908, -0.0786386952, 0.078334257, -0.325230271, -0.14410919, -0.0436049178, -0.047508847, -0.0679891109, 0.150816664, -0.100028798, -0.0972435623, 0.199296102, 0.116957217, -0.0430448614, -0.0994680524, -0.0930443332, 0.00081011554, -0.0559055358, 0.0299826209, 0.0654889271, -0.157815084, -0.0166125558, -0.128657579, 0.0251508225, 0.114920355, 0.185618147, -0.332820594, 0.249814838, -0.0720257834, -0.241662607, 0.161713615, -0.154616803, 0.0960455164, 0.0829809606, 0.171026736, -0.036095567, -0.120042987, -0.0794935897, -0.0538524128, -0.105326146, -0.0504780896, -0.0437042862, -0.0878388658, -0.0707236305, 0.102404378, -0.0135889566, 0.0414769128, -0.0951312184, 0.179891229, 0.235738099, 0.0550039969, 0.21534811, 0.0704389662, -0.182683989, 0.0529262573, -0.0493182279, -0.122053824, 0.091747418, 0.00606365222, 0.0582408682, -0.107479312, 0.0392473303, 0.103949055, 0.335569888, 0.297808766, 0.0553515702, -0.0807616711, -0.0377072021, 0.234815866, -0.0286781136, 0.0480773561, 0.0300772488, -0.030195497, -0.155479789, -0.121752918, 0.108006351, -0.23825556, -0.101463608, -0.377419114, -0.378115803, 0.230390489, -0.210563064, -0.495724976, 0.0631219968, 0.10221523, -0.270852387, -0.0825176314, -0.141981572, 0.203473702, -0.174937502, -0.108482771, 0.109528117, -0.372653753, 0.0320075788, 0.013631775, -0.263170481, -0.162220716, -0.0602472499, -0.0713471323, -0.152391121, -0.0217777342, 0.0970035493, -0.0250445604, -0.07869564, -0.196676642, -0.111550145, -0.0913325548, -0.10603366, 0.0563873202, 0.0565731712, -0.269416869, 0.040945366, 0.0738806725, -0.0229583085, -0.118973911, -0.0936169624, -0.0635016635, 0.0223903358, -0.0254482534, -0.242186293, -0.0147720259, -0.14860855, 0.160453409, -0.0595768318, 0.0511740558, 0.0627781525, 0.199695379, 0.154867068, 0.114900887, 0.173066661, 0.0965103954, -0.215149343, -0.321768075, -0.643454015, -0.091215156, -0.345784575, -0.377311736, 0.287351757, 0.0523737669, -0.232258648, -0.227942884, -0.453433543, -0.289245695, 0.280895531, -0.33362928, -0.037259981, 0.237551808, 0.15133667, 0.305613607, 0.0626715124, 0.159283996, 0.371388763, -0.308201283, -0.063283287, 0.0780821219, 0.00645725382, -0.0682440847, 0.0521093458, 0.15323019, -0.0986175686, -0.0993597433, 0.0416311398, -0.0757413581, -0.175937667, -0.0290347021, -0.105172306, -0.188310161, 0.00447557541, 0.147295982, 0.0346838236, 0.0335117392, 0.147687525, 0.0248985961, -0.425054729, 0.0181647073, 0.00690263882, -0.310929149, -0.103905514, -0.0273702387, -0.247321308, -0.0291993357, -0.00518163294, 0.225776881, 0.12364886, 0.093854554, 0.0551646017, -0.0310994163, -0.046292644, -0.253699005, 0.0837520137, 0.105066463, -0.0460178964, -0.0254473314, 0.216785565, -0.162365109, 0.178759396, 0.13165009, -0.486857444, -0.0784337297, 0.0424981229, -0.211268857, -0.0364754312, 0.334752738, 0.209400803, 0.0718821287, 0.213791728, -0.0790245757, -0.169744492, -0.0294864811, 0.0280215442, -0.186342955, -0.249139994, -0.106396124, -0.0665459931, -0.0654441193, -0.256239384, -0.0239382144, 0.0217083767, -0.147037864, 0.050941918, -0.111772709, -0.020503344, 0.0462902933, 0.100441232, -0.0978522375, -0.097337231, -0.0974510238, 0.00133434718, 0.0341770127, -0.105937272, -0.0919393972, 0.0280258395, -0.168939427, -0.0496998169, 0.174596697, 0.0256033875, -0.0341788605, -0.0720070526, -0.384339899, 0.130950034, -0.116857588, -0.201934695, 0.131783932, -0.146965519, -0.120485127, 0.0431648903, -0.201453179, -0.0502160713, -0.0160168391, 0.0406249985, -0.207463205, 0.101679526, 0.527433515, 0.222398385, -0.488681853, -0.0538012646, -0.190881297, -0.110427655, -0.100458503, 0.0270013195, 0.123554379, -0.0252579153, 0.243852973, 0.136342645, 0.0969980657, 0.0345605016, 0.0157199409, 0.00908449572, -0.0491794124, -0.400362521, 0.0124405352, -0.107971668, -0.00962638482, 0.126498476, -0.0695352331, -0.269909978, 0.0167805254, -0.113283716, -0.256333113, -0.0436621271, -0.0105156768, -0.365318716, -0.144013882, -0.129326239, -0.210701466, 0.0900077298, 0.00454591494, -0.326981008, -0.184504703, -0.155307963, -0.420875013, -0.0599840209, -0.123166636, 0.226544023, 0.0203216933, 0.213031203, 0.249694869, -0.0502925813, -0.0446318202, 0.146035388, -0.113524139, -0.0371332169, -0.295272022, -0.14551945, -0.0134271868, -0.103201605, 0.117589302, 0.0588599592, -0.0945618451, -0.0681924224, -0.0597278588, 0.296977013, 0.487985104, 0.587648034, 0.0834717453, 0.0426907577, 0.0141816428, -0.266299307, -0.357840538, -0.261884391, 0.0396025702, -0.0603431426, 1.26074883e-05, -0.145219177, -0.140434846, -0.205015466, 0.273265034, -0.0999220982, -0.0727072284, 0.0529675372, 0.00847371574, 0.156336248, -0.141406119, -0.250969946, -0.00597656844, -0.145133317, -0.089353241, -0.0862983167, 0.00571927242, -0.206543684, -0.223515823, -0.0902995691, -0.188020855, -0.178939685, -0.0855231509, -0.0636850521, -0.0446286686, -0.0656932294, -0.100049868, -0.0590393096, -0.152047664, -0.322945178, -0.196432665, -0.118371889, -0.0945576578, -0.129142717, 0.0468092561, -0.0100223329, 0.0329054892, -0.0172883384, -0.0018561465, 0.245858625, -0.0131159388, 0.051425606, 0.0908361003, 0.0927863866, 0.0375057943, -0.01794241, 0.133394346, -0.000605229579, 0.0201744139, 0.273193359, -0.0140644535, 0.0899336413, -0.122097857, 0.131474435, -0.046476718, -0.444409311, -0.158308804, -0.0205672476, -0.155261531, 0.176468745, -0.134186283, 0.177358344, -0.139855787, -0.0371325128, 0.214491203, 0.427232802, 0.361245334, 0.432033032, 0.0148903141, 0.0327714756, 0.38082388, 0.125527948, 0.114992678, -0.0756151974, -0.0767005756, -0.288083762, -0.294562727, -0.0744503811, -0.267052948, 0.0792701244, 0.170722932, -0.164414808, -0.430010438, -0.107083768, -0.00906550977, -0.203251854, 0.0894455835, -0.214643911, 0.0786441639, -0.0227291901, 0.213326976, 0.178407699, 0.079556115, 0.126650453, -0.15041922, -0.387338936, -0.274269015, 0.0542226695, -0.0849556401, 0.0643555447, -0.179308951, -0.101319313, 0.0261131115, -0.247496784, -0.340532541, -0.268055946, 0.00483242283, -0.108193494, -0.143085867, -0.0752180591, 0.00986688957, -0.0116828093, -0.15154101, -0.120066717, -0.0643946379, 0.183913141, 0.140642598, 0.249713957, 0.108474143, -0.0468569994, 0.0426878855, 0.0438126475, -0.0934327245, -0.0631178468, 0.0815343931, 0.0279945992, -0.133140683, -0.291987479, -0.284702301, -0.414372385, -0.132517397, -0.0277186465, -0.286406308, 0.0839745328, 0.249959707, 0.206349686, 0.019984711, 0.103060715, 0.026790686, 0.0484549031, 0.018215863, 0.100680187, -0.282769918, -0.265144557, -0.115511864, -0.0793572888, 0.0912639946, 0.0544263124, 0.238254428, 0.200123146, 0.314557374, -0.0893919468, -0.165111482, -0.103096187, -0.150659323, -0.0299538653, 0.0445812531, -0.00655417889, -0.0558228157, -0.286111563, 0.0995615646, 0.0298544243, 0.084151417, 0.0971102715, 0.0211375598, 0.197608307, 0.144427627, 0.0141096888, 0.056755811, -0.0291633494, -0.186526924, -0.10170079, 0.0995138586, 0.0130110811, 0.188908488, 0.0303556621, -0.133506998, 0.0831747204, -0.00161158852, 0.100834809, 0.180761442, -0.372406155, -0.306793034, -0.203215569, -0.0987401232, 0.0305242687, 0.00529797655, -0.109584183, -0.130614415, -0.0115492344, -0.107341722, 0.0569076762, 0.0662033781, -0.0546358377, -0.0442026816, -0.144694164, -0.0909875482, -0.145174071, 0.0719863325, 0.112090059, 0.168800503, 0.330596924, 0.23924914, 0.3013345, 0.338809401, -0.110560089, 0.0778878853, -0.121275559, -0.161036924, 0.000651641225, -0.338492513, -0.358521044, 0.0564416088, -0.301809311, -0.0439211652, -0.127156183, 0.0128225638, -0.0592884235, 0.00328805554, 0.0049827043, -0.0401712507, -0.120318197, -0.00892075617, -0.0407225676, -0.0301014315, -0.141504899, -0.0777245015, 0.00893205032, 0.0309254695, -0.00889914017, 0.134922251, -0.145751908, 0.343134731, 0.18000555, 0.439222008, -0.0445505902, 0.0834660232, 0.0875111148, -0.179019526, -0.145120338, -0.111946106, 0.298285455, -0.0384638608, -0.0710175186, 0.0653613582, 0.0109710665, -0.00736178365, -0.0278018769, -0.0273268055, -0.0766298994, 0.327023655, 0.103735402, -0.290956885, -0.323083341, -0.180096939, -0.372456849, -0.232862711, -0.111138895, -0.175636947, 0.133883864, -0.0677384064, 0.0120680695, -0.0424619317, -0.144554168, -0.102290601, -0.125254214, 0.038562689, -0.0296264309, -0.0893269926, -0.243664533, 0.0700431839, 0.102957346, 0.064591594, 0.133658886, 0.0401901603, 0.000921554049, 0.0826509818, 0.184664696, -0.268986106, 0.188397765, 0.226109311, 0.0746041909, 0.264632046, 0.131558448, 0.129016384, -0.0109600807, 0.180289388, 0.0396264978, 0.208065644, -0.0645052642, -0.0601249151, -0.00843213964, 0.00325674936, -0.031053843, -0.196148127, -0.0594868287, 0.109409191, -0.0584200807, 0.0333598629, 0.255651146, 0.126989782, 0.123017699, 0.109509572, 0.0492596291, -0.122818679, -0.0923193842, -0.0031341922, 0.0790233985, 0.0600298718, 0.0617027432, -0.164289817, -0.0112852706, -0.0787170231, 0.102743864, -0.373038471, 0.189720705, 0.14051421, -0.12219274, 0.0330198184, 0.167794719, 0.186653867, 0.374364972, -0.124415137, -0.133652329, -0.162388131, 0.211783335, 0.120692693, 0.0537136719, -0.131429002, -0.0121972803, -0.294554323, -0.203809008, 0.0505938567, -0.132247299, -0.25327009, 0.134877995, -0.225451574, -0.345647335, -0.0219933838, -0.346163213, -0.232075945, -0.162109256, -0.229082882, -0.0697482601, 0.121863939, -0.145877823, -0.266555071, -0.284610182, -0.306896418, 0.286685318, 0.0918453261, 0.0464459695, -0.275038391, -0.429565072, -0.0143581843, -0.0798289478, -0.110989228, 0.244298458, -0.231286451, -0.1489968, -0.200918689, -0.0758330524, -0.0244706497, -0.00296726543, -0.0712762251, -0.167330608, -0.202268809, 0.00856230408, 0.104966484, -0.257740021, 0.0454958491, 0.132024467, -0.109099619, 0.0632356405, 0.0596047938, -0.0539401621, 0.271351933, -0.023104962, 0.107202008, -0.209893525, -0.5519135, -0.472341865, -0.0489254408, -0.224102661, -0.18902044, -0.0593063422, 0.0522369817, -0.136731938, -0.180743337, -0.054820545, -0.288178593, -0.128002465, 0.100895055, -0.140395746, 0.29272607, -0.0734137297, 0.0860325024, -0.139934063, -0.391903281, -0.468762338, -0.218873858, -0.412973702, -0.251399189, 0.218805701, -0.0261913333, -0.0357396044, 0.0639463663, 0.0860954672, 0.249222353, -0.226094142, -0.115608096, -0.0152419396, 0.443772912, 0.137952447, 0.0191103481, 0.0563541315, -0.0845420063, 0.0899883881, -0.102846786, -0.112537108, -0.00267964345, -0.109891132, -0.199402466, -0.0773680583, 0.0948125795, -0.00604441483, 0.0355053768, 0.0701598823, 0.0834744871, -0.032529179, 0.0217825584, -0.13849099, -0.137895361, -0.0564844906, -0.0991171002, 0.124945931, -0.242637277, -0.0988957137, 0.0472557396, 0.0160938967, -0.160454035, 0.0877454281, -0.017626144, -0.468936026, 0.0545534603, -0.0250924565, 0.155667812, 0.191346496, -0.293059379, -0.292463899, -0.130961016, -0.00398034044, 0.0847409591, -0.00746540586, -0.076168485, -0.213869974, -0.281432629, 0.0387311466, -0.124359533, 0.175327018, 0.123312645, 0.0536443777, 0.00735280989, 0.0687775761, -0.12344417, 0.102705851, 0.0742040947, -0.0456951186, 0.0891704038, 0.178419843, 0.223009035, 0.228485584, -0.113724165, -0.00361772254, 0.151549339, 0.144719511, 0.0503968671, 0.349513203, -0.149569616, -0.388265461, -0.171923861, -0.174247235, -0.0366339609, -0.272082806, 0.252913535, 0.13468416, 0.126604095, 0.0312785245, -0.108230844, -0.082557328, 0.0224065538, 0.112012081, 0.154910654, 0.167730033, 0.00399162946, 0.185903236, 0.0258874763, -0.0646302477, 0.299876004, 0.0824669451, -0.0934942737, 0.0668821856, -0.136603817, -0.0776872635, -0.0358711481, -0.0537071824, -0.0934650302, 0.153347999, 0.20018959, 0.117250279, 0.248417079, 0.152134389, 0.0547788888, 0.075805068, 0.22123237, -0.123011306, -0.0368082635, 0.249889404, -0.111640938, -0.0580563173, 0.0600569956, 0.234153003, -0.0167206842, 0.21225284, -0.0140255671, 0.1107039, 0.0374848954, 0.0483645126, -0.0498943403, -0.0817646384, -0.197728232, -0.220386058, -0.0760925934, 0.000638225756, 0.0497029237, -0.225972816, 0.161981225, -0.113596193, -0.00708826398, -0.0272540115, -0.143167406, 0.421321452, 0.0937361121, -0.213993371, -0.357546568, -0.0705916807, -0.304965019, -0.212903231, 0.124539293, 0.0203640107, 0.157392949, -0.0181821082, -0.14370507, 0.0722815692, -0.247956157, -0.168919727, -0.0262689032, -0.233008325, 0.0599080101, 0.124300547, 0.0871310383, -0.0493266471, 0.173192024, 0.0645960793, -0.254077762, -0.158869758, -0.236593008, -0.116659321, -0.298734665, 0.113667972, 0.0783903971, 0.0711609796, -0.131631866, 0.0954554006, 0.0312012732, 0.0574946404, -0.121132463, 0.0216639657, 0.125728071, -0.0408039279, -0.234796241, 0.0135925272, -0.0340459496, -0.0966124535, -0.102603167, -0.0771446526, -0.210590109, -0.235263497, -0.0663346872, -0.14134033, 0.11426156, 0.104422629, -0.268514365, -0.455548972, -0.238478914, -0.01748739, -0.294898182, -0.0356486477, 0.0256480314, -0.0231207293, 0.0548543856, -0.0699638128, 0.42535463, 0.255935818, 0.366354138, 0.170186907, -0.0359233692, -0.15923731, -0.118763395, 0.0651890934, 0.0259946752, 0.0545395128, 0.0946005881, 0.107809499, 0.0401547067, -0.10241048, 0.0757113099, 0.0103532365, -0.08247298, 0.115217775, -0.288035601, -0.256640732, -0.124302723, -0.237416714, -0.0539934002, 0.0963917747, 0.0855656564, -0.0184629485, -0.0685053244, 0.161997721, 0.148556709, 0.280813426, 0.198868111, -0.0770651326, -0.00399909681, -0.0683521405, 0.00972445775, 0.048794087, 0.0993644595, 0.213091016, 0.363740265, 0.124436989, 0.0732395276, 0.006082837, -0.210396364, -0.21732153, 0.219183996, -0.288589865, -0.135203272, 0.046531897, -0.043902874, -0.0878095925, -0.0790139958, -0.0143613853, 0.164530933, -0.268772483, 0.229807839, 0.154073536, 0.279858619, 0.0923651159, -0.133891732, 0.187408328, 0.0724597573, -0.119835176, 0.199885502, 0.177197859, -0.124299809, 0.100277871, -0.0900935158, -0.111340359, -0.10431008, 0.240863875, 0.260384023, -0.0247259606, -0.0467165634, 0.120528199, 0.0183505658, 0.0864253342, 0.325603276, 0.0486452319, -0.0942728296, 0.100712553, -0.0662117079, -0.0669739768, -0.120881766, -0.363925517, -0.0122299315, 0.262724459, -0.0384729579, 0.213970825, -0.0130144209, 0.126928225, 0.0184355527, 0.195125818, 0.229338914, -0.139708668, 0.0915583521, 0.00929598883, 0.0463230982, 0.0485233441, -0.0354753025, -0.319056571, -0.39889285, 0.00302370358, -0.0720067099, -0.090149872, -0.108172618, 0.0553808324, 0.0653375536, 0.271490008, 0.241473228, -0.0752578899, 0.0466111451, 0.0289283767, -0.225798145, -0.191124052, 0.0630798265, 0.0966395587, -0.103354409, -0.0167004187, 0.0450689681, 0.171855927, 0.171972305, 0.0205200911, 0.141135707, -0.0848061889, -0.329600006, -0.254595041, 0.0718294233, -0.0651474968, 0.0513911285, 0.130211577, 0.00177518034, 0.258778661, 0.0932004526, -0.0219136346, 0.198934719, 0.276117891, 0.293464452, 0.457367986, 0.0853643864, -0.136435136, 0.219701976, -0.291754276, -0.493406832, -0.109040126, 0.156180188, 0.183012247, 0.00356059987, 0.151164174, 0.102185115, 0.00839889608, 0.0526204593, 0.122140899, 0.0237396155, -0.0519625284, -0.691638052, -0.0530787855, 0.114353001, -0.0992108658, -0.121331252, 0.00962703861, -0.016630426, 0.0512017049, 0.12874341, 0.1380831, 0.136097699, 0.0204415042, -0.150361955, -0.034738861, -0.137893856, -0.0950403064, 0.0158290174, 0.157212868, 0.0825888366, 0.132313311, 0.0935734808, 0.0748670697, 0.0753186494, -0.0361055955, 0.0252980981, 0.0702344254, -0.0667066425, -0.133563608, 0.00228283787, 0.0579941832, -0.072980307, 0.0185479615, -0.00313592609, 0.0462797843, 0.353052318, 0.143673763, -0.0338692293, 0.118001059, -0.0170423854, 0.138041183, 0.196712434, -0.0328044258, 0.00875891186, -0.0259306096, -0.371280581, -0.348359555, 0.0766844824, -0.0878148451, -0.120511048, 0.0810143203, 0.17491132, 0.155277386, 0.242342219, -0.127139837, -0.110617861, 0.0457201488, 0.0344900712, 0.17154786, 0.000831391662, 0.0762356594, -0.0125095546, -0.0399063416, 0.0169287454, -0.188212916, -0.360918611, 0.0317938663, 0.11599648, -0.0363737978, 0.0883587599, -0.0813588798, 0.0336503945, -0.076425381, -0.19686009, -0.0503460988, -0.160732776, -0.134663895, -0.04490247, 0.151941076, -0.158050418, -0.188459486, 0.0636680797, 0.0630060732, 0.0161375329, 0.247209668, 0.0540753715, -0.154473975, -0.0944648162, -0.133786216, 0.150442585, -0.00782610383, 0.1518507, 0.0249914099, -0.113340713, -0.123168886, 0.0998000354, 0.0456413515, -0.0432834253, 0.195793569, -0.0850550383, -0.160849184, 0.220632181, -0.236261725, -0.123401485, 0.476130873, -0.323362082, -0.233804196, 0.0573203862, 0.133941188, 0.190916821, 0.400122523, 0.185338944, 0.132855728, 0.299864501, -0.121385582, -0.22161366, 0.0502018668, -0.051016897, 0.202440843, -0.114289723, 0.0617093034, 0.201411918, -0.138721585, 0.168630421, 0.198172703, 0.0552888662, -0.0359468088, -0.0599322841, 0.17593886, -0.0899445787, -0.282662272, -0.0988190398, -0.347095877, -0.294237882, 0.28755331, 0.0156904384, 0.155288622, 0.183003351, 0.0477207303, 0.0872810408, 0.0545130894, -0.170390025, 0.0394640118, 0.0649698302, -0.300980031, -0.19086127, -0.071536459, -0.292739153, 0.0547600091, 0.000269388896, 0.0558419749, 0.057396315, 0.222451404, -0.203747943, 0.0187978204, 0.215732977, 0.0480510518, 0.0911637545, -0.0664667711, -0.141271725, 0.10541033, 0.0864656121, 0.0846953541, -0.0936156735, -0.00253611244, -0.040452376, 0.0995363146, 0.0658227727, 0.10973525, 0.134323135, -0.330609262, 0.0950613394, -0.0210141987, 0.104628429, 0.309772849, 0.166469544, -0.0670021474, 0.0202282872, -0.0783995688, 0.0974265262, -0.231733188, -0.173827857, 0.254131645, -0.14692232, -0.0493754223, -0.0602923296, -0.0628113821, 0.198725805, 0.0582428575, -0.222501621, 0.0372288823, -0.0805944353, -0.170975268, 0.150842071, -0.0351336822, -0.161393031, 0.193481535, 0.11809364, -0.00257339561, -0.197082266, -0.218065411, -0.264496595, -0.0166742094, 0.0686164349, 0.140253544, 0.133155733, 0.152505204, -0.0986694396, -0.153271437, 0.00435678614, -0.237033278, -0.131280348, -0.0155597189, 0.0482736081, 0.206951678, -0.122712746, -0.149185583, -0.496833682, -0.147680596, -0.116392426, -0.088442266, 0.0799821094, -0.114984892, -0.172045067, 0.631323516, 0.0525999852, -0.0778461248, 0.630749464, -0.168892637, -0.408471346, 0.720615268, -0.205677837, -0.245439544, -0.18756023, 0.0178595986, -0.0687853396, 0.0558768734, -0.150208205, -0.0292418282, 0.127945781, -0.297041535, -0.1448607, 0.452861011, 0.0897780433, -0.331822157, 0.356798112, -0.43473208, -0.361611426, -0.200450972, -0.280445427, -0.259930253, 0.0317394882, -0.0835637599, -0.501261592, 0.0189327728, 0.0193961784, -0.316705883, -0.179307044, 0.160311937, -0.185401589, -0.0279732961, -0.0828760043, -0.041029118, -0.0143524939, -0.0480733514, 0.112262808, -0.0140538113, 0.0171757173, 0.11819315, -0.0579834543, 0.0236268938, 0.0313214287, 0.118343279, -0.0331944339, -0.0602207705, -0.0350472219, 0.0630373582, 0.0370487235, -0.368295968, -0.223888293, 0.114020437, -0.104074642, -0.00337619265, 0.0348798782, -0.126067787, 0.00307943742, 0.0486262999, -0.269619733, -0.203700647, -0.20816654, -0.0994296074, 0.05678856, -0.0126310131, -0.133724809, -0.20226641, -0.118328951, 0.0244668834, -0.144957468, -0.265569985, -0.119126722, -0.220104679, 0.0742729381, -0.332377404, -0.226928353, -0.120260045, -0.0431780629, 0.081388548, -0.06851051, -0.112238646, 0.059189491, 0.000691569818, -0.0604690351, 0.0965385512, -0.203060418, -0.130006343, -0.333356738, -0.111711293, -0.104453333, -0.284012347, -0.0487571247, -0.159843579, -0.125086054, -0.0460887514, 0.0565019622, -0.130007952, 0.0751406923, 0.00187924004, 0.0317883193, 0.133893341, 0.10148143, 0.05645651, -0.0974809825, -0.0141505832, 0.19739221, 0.034223292, -0.173258349, -0.119514808, 0.213400096, -0.0848043934, -0.124647327, 0.0929938182, -0.156111583, -0.010492702, 0.168635473, -0.0116864862, 0.461249024, 0.17545563, -0.317527801, 0.0993192717, 0.076495409, -0.133107543, 0.304355443, 0.062491294, -0.517585218, -0.262086093, -0.285423398, -0.168795034, -0.0866730288, -0.314434111, 0.0939090326, 0.124792166, 0.279678017, -0.0959493369, -0.150625706, -0.111355506, -0.0859941319, 0.0984303653, 0.246736199, -0.140441209, 0.0210944768, -0.223418742, 0.00916958321, -0.0539409481, -0.256734192, -0.317575932, -0.230651096, -0.0960584059, -0.3401227, -0.129317001, -0.278014749, -0.319959581, -0.178076997, -0.579553008, -0.0648155063, 0.0814517587, -0.109175272, -0.0752957538, 0.195635438, 0.129349574, -0.00763706351, 0.216864005, 0.0370712802, -0.220651954, -0.170368344, -0.21724169, 0.219140187, -0.0327446535, -0.204380468, -0.155518427, 0.00422726665, -0.173578531, 0.0369232371, 0.0250021089, 0.0291215461, 0.0579962656, -0.124804839, 0.0822406039, 0.10241162, -0.256336361, -0.124056041, 0.28671363, -0.247090295, 0.0700432509, 0.0474553965, 0.137433693, 0.152790949, 0.111369692, -0.0081182085, 0.0124029573, 0.0410205461, -0.375030309, 0.0417537913, -0.0736515149, -0.160834834, -0.0612751059, 0.13861987, 0.0573679358, 0.0385476463, -0.128328815, 0.10773962, -0.0311182402, 0.132045031, 0.151324019, 0.0130618047, -0.0102761937, 0.00577681279, -0.20515047, -0.0392048471, -0.0756396428, -0.131841213, 0.00152576843, 0.389223933, -0.311424404, -0.111669898, 0.19176957, -0.000258456275, 0.151284486, -0.265690506, -0.0543373227, -0.0177538861, 0.111905381, 0.179511473, -0.172463924, 0.301251024, 0.158999369, -0.0290719159, 0.237088114, -0.104529805, 0.222895354, 0.12874724, -0.0557986386, 0.24409169, 0.244321838, -0.219623581, 0.195641339, -0.0381380282, 0.0223909505, 0.319352657, -0.206487566, -0.0590289235, 0.0387629718, -0.335773081, -0.21335417, 0.196815744, -0.238206133, 0.204332262, 0.147183433, -0.051826071, -0.0116220247, -0.248777404, 0.152221456, -0.109986469, -0.114602484, -0.054647591, -0.155144349, -0.299103975, -0.0584894456, -0.254695326, -0.415438145, -0.198273525, -0.249558806, -0.233905822, 0.0236278921, -0.26047942, 0.0489183255, 0.133163407, -0.231352478, 0.0784662962, 0.134484604, -0.0865917951, 0.0523198284, 0.11000409, -0.183720455, -0.260915637, -0.27973929, 0.134822011, 0.120611832, -0.159391478, 0.186056241, 0.303765327, -0.012745033, 0.238621056, -0.225414112, 0.13032034, -0.212378323, -0.0222226791, 0.0517081954, -0.0584166385, 0.109141648, 0.175941005, 0.0476082116, 0.0526721366, -0.0780154318, 0.242614701, 0.300358593, -0.0343560763, -0.124580927, 0.279889792, 0.00945679471, -0.157771379, -0.310213715, -0.0904871076, -0.107275881, 0.00153794163, 0.171023786, -0.0986842811, -0.0820845887, 0.284481019, 0.0176254995, -0.278677046, 0.0826585814, 0.235931516, -0.185300872, -0.027047541, 0.080413647, 0.00530804275, -0.0222024042, 0.145354077, -0.0746695995, -0.120293997, 0.0293913074, -0.0580301024, -0.196871594, 0.304109037, -0.331518829, -0.0643793344, 0.282861382, 0.0988771692, 0.516502678, -0.462619185, 0.0446734168, 0.277240425, -0.250595063, -0.207939178, 0.0167260543, 0.310319036, -0.0992391631, -0.0268423483, -0.023928836, 0.269434959, 0.138445437, 0.0826978609, 0.0119636953, 0.414140433, 0.234774947, -0.17331776, 0.0560522191, -0.158095405, -0.0252675004, 0.0291119479, -0.0402238742, -0.123202741, -0.294511795, -0.44956398, 0.0455024131, 0.00517929019, 0.0192049146, -0.0786608458, 0.115638971, -0.0543934442, 0.0324259922, 0.330772668, 0.29156673, 0.217958838, -0.00268452102, -0.0283996426, 0.00343673513, 0.187809289, -0.226764023, -0.13160497, 0.0822095051, 0.151760861, 0.127160504, -0.0735649318, 0.0671744123, 0.00438679103, -0.0230527427, -0.130062297, 0.106595084, -0.266831428, -0.150409147, -0.336863399, -0.150938913, -0.173446745, -0.153096244, 0.0302915461, 0.00992737152, 0.00129955099, -0.0229211748, -0.00490655517, 0.0152689768, 0.132635295, -0.0538558327, 0.15847528, 0.149638399, -0.144054532, -0.0459267683, -0.256374091, -0.1353966, 0.0567223057, 0.0506150723, 0.0765634924, 0.178735167, -0.0585204996, 0.0231218152, 0.285299242, 0.0681339502, 0.259691477, -0.36751157, -0.246524751, 0.0156515371, -0.261870831, -0.29164654, -0.1727902, -0.284826487, -0.353547335, -0.147424236, 0.110887013, -0.0464889333, -0.0623926148, 0.0530077443, 0.0423757918, -0.0227531176, 0.311298341, 0.158403739, 0.0156668052, 0.390892953, 0.0857584849, 0.00769082224, 0.0113941273, 0.471420258, 0.168715745, -0.101804346, 0.21014142, -0.171250835, -0.226636425, -0.100853235, -0.0257690195, -0.306212306, -0.294678986, -0.0779302344, -0.0163863301, -0.0423317142, 0.146939322, 0.0223582014, -0.142074421, -0.0462642536, 0.207591608, 0.107371159, -0.450351715, 0.113330834, 0.0409192629, -0.119633816, 0.203175157, 0.132797688, 0.209634706, -0.172644407, 0.0271574818, 0.120597936, -0.19953233, 0.134219423, 0.176307067, 0.00419415999, 0.0632769242, 0.192768395, -0.0496887043, -0.457761228, -0.0781327933, 0.048759561, -0.255115032, 0.0546161458, 0.141291916, 0.0428980887, -0.0637823492, 0.20041202, 0.168566048, -0.113674045, 0.124397889, 0.207083672, 0.00999720115, -0.0150787504, -0.346935749, 0.10567598, 0.0515099242, 0.172937796, -0.321331561, 0.0877474099, 0.166805118, -0.239562929, 0.0888758302, -0.0848987997, 0.29810816, -0.0988933146, -0.205096379, 0.340728521, -0.0274184979, -0.240651652, 0.316433042, 0.0599789396, 0.0333653837, 0.119499631, -0.0171984863, -0.164530814, 0.00816815719, 0.0615007132, -0.131015807, 0.00290843123, -0.0366503783, 0.344098419, 0.0450381078, -0.222281203, 0.159985781, -0.0490364656, 0.0982110649, 0.26979968, 0.0941892564, 0.0262680296, 0.150757968, 0.0903370976, -0.084080562, 0.0828711987, -0.0762364045, -0.231659025, 0.0702250078, -0.0120121073, -0.0574276522, -0.189439282, -0.0304521266, -0.0812795833, -0.0616624542, -0.0341927521, -0.0189350192, -0.0372577161, 0.122492418, 0.132281825, 0.195776835, -0.0845105648, 0.000858603395, -0.0753832608, 0.00127059093, -0.0334061831, -0.0336245634, 0.125118196, -0.0693965256, 0.116624735, -0.00358707807, -0.180919096, -0.195883825, -0.212677523, -0.224844113, -0.135994345, -0.064005971, 0.0312310569, -0.106093422, 0.00366744027, 0.166905195, 0.0285527948, -0.014011967, -0.0944398195, -0.197673336, -0.0154347429, -0.0416687094, -0.00580176339, 0.0402553156, -0.232277215, -0.084986493, 0.074513711, -0.259211391, -0.234715372, -0.0423631519, 0.235091135, 0.087751016, -0.234278604, -0.200979829, -0.325607926, -0.522967279, -0.0351984836, -0.155926943, -0.15084672, 0.198125169, 0.124849156, -0.127173796, -0.250906378, -0.38987729, -0.206154704, -0.129307196, 0.0252846219, 0.00489362888, -0.516281724, -0.337740839, -0.46126318, -0.389169008, -0.148804724, -0.369599074, -0.296903133, -0.227414489, -0.259132415, 0.0170176718, -0.0451879352, 0.146072164, 0.147919819, -0.123013996, -0.0868738815, 0.124016091, 0.113858782, 0.216108039, -0.0644683242, -0.0592096783, 0.00210167724, -0.142305374, -0.267436594, 0.206085488, 0.104927219, -0.065920569, 0.102313556, -0.167850867, 0.0959149376, 0.287955195, -0.0692746416, -0.0052415235, -0.040473491, 0.105108857, -0.038963452, 0.0322500095, 0.138217479, 0.00122473633, -0.196827397, 0.0796680152, 0.102807067, -0.294545025, -0.155158803, -0.139121234, 0.00338724279, 0.0681063458, 0.00677518966, 0.098604463, -0.245364368, -0.185831532, -0.0869484544, 0.0985134244, 0.145652771, 0.0923863426, 0.023188211, 0.0238313973, -0.136675149, -0.082604371, -0.0677048713, -0.198168963, -0.116145857, -0.182314008, 0.272740036, -0.190599084, -0.231595129, -0.0142262094, 0.057973098, -0.0695420504, 0.150328875, -0.100998424, -0.183994085, -0.0312853418, -0.0292613357, 0.0106681623, -0.154087067, 0.364637762, 0.147661477, -0.0293502584, -0.0485075489, -0.143957481, -0.154439107, -0.219181761, -0.113820195, 0.0264182352, -0.146207869, 0.0109781539, -0.0230734423, 0.00753519218, -0.0646477267, -0.0571984984, -0.110114209, 0.282772571, 0.0858125389, -0.055122491, 0.176491991, -0.105699725, -0.11308787, 0.0250553805, -0.146607488, -0.37758705, 0.096627079, -0.00818996411, 0.0107523957, 0.224883825, 0.225982219, -0.0717504397, -0.086645402, -0.0506741107, -0.221577898, -0.233723074, -0.035290774, -0.105327263, 0.00830713194, 0.144858077, -0.136478081, -0.0761468634, 0.0507326163, 0.145202458, 0.0925938934, 0.15163736, 0.0780993924, 0.308596969, 0.13437517, -0.0972916037, -0.16290547, 0.0473359898, -0.0678042024, -0.189114675, 0.0386081226, 0.0806862265, 0.0270214751, -0.0505230129, -0.0481478646, 0.0765345246, -0.0540354475, -0.119518779, 0.0198913794, 0.0731672868, -0.153356284, -0.255134821, -0.0618424937, 0.00542325852, -0.0227837488, 0.158731461, -0.10847874, -0.0370205194, -0.0994973183, 0.0696634948, 0.166980013, 0.0369961224, -0.145823076, 0.19901377, 0.212561458, -0.0702586323, -0.231456935, 0.0588912331, -0.282230109, -0.160999313, -0.0316542313, -0.00648555206, -0.000219911017, 0.00540059013, -0.226327538, -0.16037403, -0.218733966, 0.0727300793, -0.290861964, 0.211393625, -0.0877832696, 0.0995714143, 0.0336299017, -0.25303477, -0.118733361, 0.0517124571, 0.11961022, -0.0773619935, 0.135875046, -0.00564097799, -0.153805986, -0.178569019, -0.101968519, 0.0115974825, -0.355219662, 0.0119340429, -0.0675649866, -0.258526474, 0.0516682155, -0.226092085, -0.112886637, -0.263552159, -0.0523918271, -0.115417585, -0.0940055922, 0.111399956, -0.0715757385, 0.0753187463, -0.0031441045, -0.113271669, -0.103492834, -0.354939014, -0.116127193, 0.274390131, 0.240809441, 0.116958894, 0.01048458, 0.0130331349, -0.0136055658, -0.301085442, 0.0774186701, -0.0592585951, 0.0146780806, 0.218385264, 0.335099101, 0.107247643, -0.1142551, 0.0599789806, 0.0923160613, -0.104444027, 0.00578865409, 0.152828813, 0.138516933, 0.094851464, 0.14540568, 0.012626878, 0.149284437, -0.183415085, 0.0903750807, -0.0683106035, 0.087087281, 0.00397163769, -0.212472811, -0.0127771962, -0.0259858593, -0.155165449, -0.486700445, 0.00410037488, -0.0023413864, -0.127772823, 0.0653248504, 0.00884272344, -0.326171756, 0.013382623, 0.0551738217, 0.174760684, -0.0979893655, 0.130255848, 0.0241383445, -0.101301514, -0.130540639, 0.18253383, 0.101532102, 0.0387159102, 0.02905792, -0.0478327014, 0.0860265121, -0.00560080633, -0.102222189, -0.252823889, 0.0613118373, -0.195472792, -0.11817196, 0.0414751135, -0.00722777192, -0.0881564841, 0.104111239, -0.0755182058, 0.0447768383, -0.0457690172, -0.0564921685, 0.282059073, -0.0311163813, -0.0672766417, -0.0766952038, -0.14751035, -0.213240549, -0.282115906, 0.0729591399, -0.142374858, -0.202915907, -0.506709874, 0.0124162687, 0.0853319839, 0.143039435, 0.178108469, 0.244317308, -0.130661771, 0.196857333, 0.190477014, -0.0975285172, -0.0283292253, 0.0590013228, 0.275946736, 0.331115216, 0.0298771616, 0.250550121, 0.0744324774, -0.0617259927, -0.195883512, 0.101287119, 0.354074031, -0.222603798, -0.230190158, -0.05864105, -0.0884523317, -0.194341555, -0.169822738, -0.588760555, -0.269666165, -0.27515915, -0.0866926834, 0.318759084, 0.188264668, -0.0144280437, 0.126966298, 0.129090667, -0.36569196, -0.159038186, 0.143923029, -0.313332051, 0.0257547311, 0.139006078, -0.0938625857, -0.0669321269, -0.020682022, 0.25377053, 0.132641822, -0.0286467485, 0.0485721715, 0.127488062, -0.117942892, -0.0145911286, -0.0577447712, 0.0405769832, -0.0824068263, 0.133900985, 0.126234561, -0.0634082332, 0.0478774421, 0.0658569485, 0.129606113, -0.126618445, 0.073998265, -0.241332978, -0.123865068, -0.074483633, -0.19516705, -0.276140004, -0.0795625597, -0.0045857057, -0.0843349099, 0.107937366, 0.0278655048, 0.2292272, 0.0960550234, 0.00571207749, 0.136329681, -0.215474293, -0.160334766, 0.00797758717, -0.0967708901, -0.390743107, 0.0632290393, 0.0538107976, 0.0536587238, 0.114551686, 0.213869482, -0.433695823, 0.208808213, -0.0420818999, 0.0568336807, 0.0563710928, 0.177423, -0.127977133, -0.216672465, -0.0977566391, -0.0767846406, -0.208681509, -0.178902969, -0.168523118, 0.130617887, -0.133375049, 0.0647968352, 0.122910626, -0.00119104562, -0.0923649967, 0.0522811189, -0.0676122308, -0.0337013043, -0.253309637, -0.193781614, 0.0827632695, -0.0900335982, 0.137580499, 0.0352183655, -0.0557362363, 0.0061486885, 0.0431398116, 0.0345397033, -0.24869433, 0.145881623, 0.0538579933, -0.308680624, 0.168677956, 0.0475268736, -0.127189621, -0.214846998, 0.0990372226, -0.0642801598, 0.143738657, 0.315789223, 0.200317666, 0.00120146782, 0.0766999871, -0.140419945, -0.16303812, 0.149181038, -0.23182632, 0.0201051999, 0.0903289691, 0.115385011, -0.0848638937, -0.0873986855, 0.102703728, 0.0142713021, -0.080448173, -0.242471561, 0.0775498524, -0.0196464397, -0.269804806, -0.040634308, -0.0663276613, -0.0438846126, 0.123745188, -0.100789532, -0.124954417, -0.183319643, 0.182941213, 0.295506984, 0.0327836238, 0.00490151206, -0.148676589, -0.0154046742, -0.0575354435, -0.120346226, -0.0849602968, -0.0278346762, -0.0964487791, -0.164705977, -0.0759855136, 0.116342761, -0.0681810901, 0.0525688939, 0.208002731, -0.107117966, -0.0145544205, -0.221733734, 0.195086852, 0.0683968514, -0.0253774673, -0.239486456, -0.052059412, -0.0185751691, -0.192566529, -0.115195356, -0.042436827, -0.0643848032, -0.056914825, 0.19645901, -0.321222752, -0.0870611444, -0.171600282, 0.269748598, -0.0339147486, 0.0873418674, -0.0489062481, -0.0980528593, 0.0466990285, -0.0983743295, -0.190831006, -0.0714266226, -0.156734258, -0.177553654, 0.298255712, -0.219491169, 0.117211901, -0.0618044287, -0.235396743, 0.0611360036, -0.187460437, -0.0607383363, 0.199217066, 0.0143005252, 0.0550464131, 0.136791125, 0.0114413546, 0.0539256968, 0.128077209, -0.0352407098, 0.203641117, 0.0322000533, -0.058454413, 0.0260738581, 0.225792646, 0.0612418503, -0.540496945, -0.0132834753, -0.159168407, -0.0964519903, 0.157359257, 0.183804899, 0.126835614, 0.102928244, 0.0449152403, -0.138561532, -0.0756594762, 0.0740759149, -0.0712917149, -0.0379563794, -0.196262434, -0.0528684147, -0.051993899, -0.138312325, 0.060895361, 0.0134636788, 0.193773285, -0.0290474799, 0.0412199162, -0.0983388722, 0.298141301, 0.0592368394, -0.0756377652, -0.0634942055, 0.0220356118, 0.00297486456, -0.182580233, 0.0169606078, 0.0293136723, 0.0647590086, -0.0326004885, -0.0154817952, -0.328674972, 0.264326334, -0.084087044, -0.0421872213, -0.005205316, 0.161043376, -0.0960455984, 0.100536831, -0.209907189, -0.186531514, 0.0110221133, 0.0194833372, -0.182699904, -0.0354377627, -0.00605250569, 0.0110037811, 0.00498547824, 0.0577783808, -0.0465316512, -0.063168101, -0.521836638, 0.0069076051, -0.0168448575, -0.164966434, 0.199108124, 0.118759103, 0.063546434, 0.331259251, 0.11796163, 0.206675842, 0.0467102826, -0.0149601595, -0.0424822159, -0.016529141, -0.226124138, -0.104648195, -0.0127364146, 0.0627914816, -0.027411256, -0.150623202, 0.115678221, -0.0727067292, 0.0319534279, 0.0831382722, 0.0963974521, 0.0632952005, -0.0389084145, -0.308874726, 0.0658646971, -0.133187413, -0.0566231236, -0.0965709314, 0.00423013419, -0.0348409005, 0.178114936, 0.0858863071, 0.0422322489, -0.0114590665, -0.0769961327, -0.2238276, -0.248069197, -0.180448711, -0.170560673, 0.10976322, -0.091326572, -0.0898184031, 0.0965791047, -0.0751512647, 0.0572726466, -0.0640585423, -0.170620576, -0.117451347, -0.31289494, -0.201683298, 0.0183210336, -0.175522417, 0.0930394828, 0.0562949777, 0.0674406737, 0.0614445806, -0.0326357931, 0.0776723698, 0.272866398, 0.356082231, -0.167707384, -0.0148342894, -0.0605017915, -0.00419578934, -0.0157204773, -0.0840781182, -0.0741356462, -0.211056128, -0.39312914, -0.0282792281, -0.2550295, 0.0686330572, -0.147540256, -0.223569483, -0.101210013, -0.146499082, 0.0990180448, -0.0663325116, -0.107108943, 0.113317892, 0.115578562, -0.330999047, -0.188261747, -0.190280169, -0.40280658, -0.209429026, -0.166693792, 0.123985477, 0.145181373, 0.00621548388, 0.191815794, 0.139432892, -0.0713672042, -0.264538586, 0.0590617284, -0.122252494, 0.128260523, -0.035874173, 0.00981049892, 0.0970864967, 0.197408035, 0.103926212, 0.0643780008, -0.136212111, 0.0824974999, -0.0506178513, -0.346214414, 0.313998103, -0.447422534, -0.174043432, -0.260937124, 0.0375599861, 0.0381115973, -0.00287731877, 0.144689903, 0.0775694549, 0.135349885, 0.0260040835, -0.164708957, 0.0593976453, -0.200865239, -0.165903926, -0.054778371, -0.0905870572, 0.131513029, 0.0326423198, -0.23598206, 0.249492392, 0.129173458, 0.0743668824, 0.00879709516, 0.0550585687, 0.0451899953, 0.143704087, 0.231048644, -0.1242382, 0.0335922092, -0.0840402842, -0.10506615, -0.24912411, -0.165359005, 0.204169169, -0.113011584, -0.243016586, -0.381646335, -0.410830051, -0.160603821, 0.0711267218, -0.0715123489, 0.0866187885, 0.119457066, -0.204254016, -0.0380086191, 0.11002437, 0.0558594912, 0.0846927613, -0.368276536, 0.0588852726, 0.170487314, -0.223006502, 0.0950811356, 0.237942874, -0.217105508, -0.0433840863, -0.144775227, -0.0908406153, -0.153880581, 0.0375590771, -0.00651748246, -0.189975023, -0.123861223, -0.187609568, -0.371090442, -0.110382371, -0.208821625, -0.167791277, -0.168755382, 0.00524094794, -0.186153188, 0.0125270616, -0.314699352, -0.15815109, 0.205227464, -0.00529066706, -0.0539138988, -0.13734071, -0.0715691671, 0.0260609239, -0.116055183, 0.0380219184, 0.141118109, -0.147356197, -0.216038257, 0.0760517567, 0.262642831, 0.105153814, 0.0323883966, 0.0172773022, 0.146447286, 0.205693111, 0.100093752, 0.0857692137, 0.0605477281, 0.207561329, -0.150992617, -0.00682299118, 0.205707252, -0.0967591479, -0.179891631, -0.00922361575, -0.0337306485, -0.314421862, 0.155204743, 0.0994785503, -0.309180796, 0.0685182735, -0.0230627991, -0.218702555, 0.174242213, 0.323291987, 0.125065625, 0.0908354521, -0.128428102, -0.0465403274, 0.142863795, -0.337904066, -0.219166145, 0.0949321687, 0.0421729609, -0.115151264, 0.097875163, -0.153107584, -0.227706343, 0.113251224, 0.0524097793, -0.284044296, 0.355697095, 0.189083129, -0.0892751589, -0.041664023, -0.271490365, -0.211765587, 0.0411130376, 0.0326914266, -0.37225756, -0.0568696894, 0.145565942, 0.189706415, 0.03416688, 0.0934545547, 0.155239075, 0.305539936, -0.0717058554, -0.348965913, 0.0996369272, 0.0289499778, -0.200800627, -0.385612816, -0.174677521, -0.239924386, -0.0256280862, -0.105078712, -0.146636605, 0.00507864496, -0.107966281, -0.232988492, -0.163635373, 0.0322635807, -0.0567879826, -0.100353882, 0.117873296, 0.0155789871, -0.113528267, 0.0995994434, 0.0869846269, -0.131630108, 0.0430045649, 0.00566809345, -0.0714167431, -0.0499019995, 0.00590539351, -0.0333641693, -0.0837355852, -0.150065333, 0.0214457978, 0.363434702, -0.107173204, 0.0840271115, 0.232024029, -0.26145649, 0.038024459, -0.0429350138, 0.198018879, -0.012017265, -0.14128001, -0.19306016, -0.0474075526, -0.176957265, -0.191679314, 0.227711454, 0.0430021919, -0.00781765301, 0.0512340553, -0.262755215, 0.00611309987, -0.00161155756, -0.159758359, -0.0171323381, -0.148195371, 0.0903275311, -0.0890690684, -0.0748774409, 0.1864499, -0.00142959808, -0.0695722774, -0.0788437054, -0.396345437, -0.308428228, 0.0793090686, 0.131233156, -0.101944439, 0.040252272, 0.159054235, -0.00523021771, 0.0270410851, 0.155069917, 0.0686170235, -0.0784870759, -0.157202855, 0.185202658, 0.0203941669, -0.0789484307, 0.265590191, -0.189076483, -0.464103878, -0.0427010991, 0.27437669, 0.0547986105, 0.155624941, -0.0222126748, 0.0208990257, -0.0966535509, 0.174251437, -0.0925766528, 0.082982935, 0.00872113742, 0.0156559739, 0.000685518433, 0.162025318, 0.14495033, 0.0560767762, 0.172109067, 0.168627918, 0.033082623, 0.0100378785, -0.0425249152, -0.214491308, 0.0435848236, 0.200410664, -0.140643179, -0.0811991096, 0.0963309705, -0.0497460999, -0.219192058, -0.00120618101, 0.232467383, -0.097368598, 0.0581434704, 0.00398977427, -0.224016175, -0.191297695, 0.049075786, -0.0854841545, 0.0961228833, -0.0988318771, -0.0697918385, -0.172847018, 0.0742679611, -0.229835495, -0.233711913, 0.227825284, 0.168383047, 0.0834677666, -0.153791711, 0.205949947, 0.273764104, -0.00905802008, -0.113972411, -0.126891375, 0.00180344132, -0.0739559084, -0.104191788, 0.125075623, -0.0178023595, -0.263725072, 0.0353834704, -0.391112655, -0.228317752, 0.0498621315, 0.0648217127, 0.0938160494, 0.0462440774, -0.106760621, -0.225791305, 0.0618615411, 0.0219104439, -0.182443947, 0.0377895236, 0.23151949, 0.159115449, 0.209447622, -0.0176102705, -0.101681747, -0.0556772389, 0.0987595543, -0.147145241, -0.071102567, 0.0795415714, -0.0962169617, -0.00912225712, 0.0453649424, -0.0648920536, 0.0303496495, 0.170837343, 0.29080236, 0.1451502, 0.147940964, -0.0248812437, 0.0723626688, 0.07888937, 0.0429995917, 0.117656581, 0.0767244101, -0.469579905, -0.0202083178, 0.097798422, 0.0853745788, -0.41881144, 0.322730809, 0.0634324327, 0.165128693, -0.0457937792, -0.0384309925, 0.0876639634, -0.0273384452, -0.176118657, 0.232247293, 0.228262395, -0.0801425055, 0.116718687, -0.345847815, -0.526201606, -0.0363533162, -0.0734084398, 0.106913008, -0.0896140262, -0.0285958908, 0.161783203, -0.0890212134, 0.0853749663, 0.282573402, 0.018280657, -0.0916417688, -0.0764115527, 0.134450182, -0.112904549, -0.0913361758, 0.0535108633, -0.0735890195, -0.110726297, 0.0148830581, 0.446553439, 0.127231538, 0.07576897, -0.0119777564, -0.110345937, -0.330797404, -0.00534708286, -0.114229314, -0.32238555, -0.00349876913, -0.177191272, 0.262138069, -0.0792807266, -0.223690018, 0.0943103507, -0.38762933, -0.545822263, 0.190489501, 0.36305666, 0.364539564, -0.127489761, 0.0128962072, -0.184134752, -0.231971323, 0.135146767, -0.0908285007, -0.0500870198, 0.0163709782, -0.0791503489, -0.0771231651, -0.0485375412, 0.051564768, -0.236208484, 0.22348924, 0.271087885, 0.0109560098, 0.0341200829, 0.0334096886, -0.00995739177, -0.210285246, -0.0482013002, -0.161894545, -0.256124288, 0.0629046336, 0.138404697, 0.043928884, -0.18359594, -0.00333674066, 0.0542327203, 0.0689899251, 0.166053772, -0.164615691, 0.189448297, -0.204113588, 0.0253231581, 0.17791155, -0.0726610273, -0.0895626321, 0.200082555, -0.0512659512, -0.256264925, -0.217695206, -0.227732018, 0.0622101463, -0.0573134646, 0.0468415916, -0.055006437, 0.0517461747, 0.0736202151, 0.164598525, 0.0761468858, 0.161259726, 0.0371948592, 0.0717981607, 0.0693772137, -0.187945813, 0.0548918508, 0.210168451, -0.17394881, -0.0725551546, 0.259489924, -0.0915411413, -0.0439957492, 0.0509780161, 0.0395412259, -0.0406026319, -0.00956377666, -0.210560948, 0.0150622996, -0.0792642459, -0.0650232509, 0.0276827812, -0.0323563628, 0.294457197, 0.0958723351, 0.0502358675, 0.228097722, 0.364287943, -0.0437018983, 0.18172808, -0.00575908041, -0.20233649, 0.254906327, 0.120993122, -0.116480894, 0.220797196, 0.0353198983, -0.040033523, -0.0333549194, -0.0266327783, 0.0165444016, 0.269719899, 0.101901799, 0.223969877, -0.0205993913, -0.246407136, -0.212214589, 0.527130604, 0.0787759423, -0.49171716, 0.579201639, 0.12445119, -0.262108982, 0.236478746, -0.277618915, -0.195861444, -0.0812730715, -0.0447181687, -0.0516054668, 0.106863685, -0.0977146477, -0.0715539381, 0.314277887, 0.177048028, -0.0843835026, -0.206473917, -0.30756098, -0.241490915, -0.0156130465, -0.129133016, 0.045724187, 0.402983576, -0.365360618, 0.179932386, 0.0736571327, 0.161203519, -0.152349919, -0.121052675, -0.0892155692, -0.138004139, 0.37319538, 0.215906575, -0.0827463567, -0.227427527, -0.130485117, 0.0354951546, 0.0123001123, -0.324012548, 0.130234957, -0.277917176, -0.350521594, 0.128211454, -0.196118683, -0.104375355, 0.0672372356, -0.13200973, -0.00467898091, 0.0269815065, 0.0130153885, -0.0399921276, -0.153551072, 0.0733923241, 0.0747252405, -0.132472843, 0.242951214, 0.121182263, 0.00408128928, -0.0623907186, 0.03483437, -0.125023142, -0.0913962871, 0.106284544, 0.371758908, -0.0197181534, -0.172023058, -0.0716763064, -0.0421703793, -0.261470377, -0.319609731, 0.0120905517, -0.193057016, 0.145617232, 0.0702136457, -0.227978528, 0.290862978, -0.0871853828, -0.431442201, 0.02886061, 0.00857838709, -0.0775376931, 0.0994506553, 0.127751395, -0.0107479999, 0.161430985, 0.0142100751, -0.138636455, 0.0792424679, -0.331351608, -0.243236363, -0.237213999, -0.0539164096, -0.405252188, -0.299890012, 0.257626891, -0.256436616, -0.0301334299, 0.188925177, -0.0805998743, -0.22300528, -0.0957406908, -0.0144033255, -0.113108821, -0.0567100793, 0.069287844, -0.0990477428, -0.0107366778, 0.0565912835, 0.230996668, -0.156982809, -0.0569671653, -0.113938972, -0.0559934303, 0.3264319, 0.147544891, -0.0844765976, -0.105437368, 0.0944655538, -0.0239295997, 0.158525541, 0.10273993, 0.0599425919, 0.0618371479, 0.0970158279, 0.241482288, -0.0318015926, 0.164793551, -0.0743846819, -0.0622397065, -0.113738142, 0.0603973679, 0.0762744322, 0.156982347, -0.137028098, 0.0621001311, 0.336073011, 0.0558480546, -0.0171398893, 0.335477471, -0.104637079, 0.0456268601, 0.157941833, 0.169928223, -0.283111155, -0.305544257, 0.441627294, -0.239867985, -0.408532858, 0.761038363, 0.102457963, 0.0945764333, 0.154167935, -0.043098297, 0.198302135, -0.14536494, -0.220731527, 0.0543425754, -0.0660401955, -0.102054842, -0.11068362, -0.15015921, -0.0354571193, 0.130182013, -0.0303256959, -0.0129487533, 0.001349675, 0.251244217, -0.0752898827, 0.0248164795, 0.206438005, -0.245788187, 0.0141244205, -0.256371975, -0.125214547, 0.326124609, -0.320143938, -0.283342719, 0.176788479, 0.114371568, 0.165081143, -0.127299279, -0.21041362, -0.0845356286, -0.107008845, -0.0324184224, 0.0360025056, 0.0818893015, -0.0482974276, -0.0676259622, -0.0122771356, -0.0308078229, -0.187380776, -0.0903363153, 0.0583181791, -0.0179709215, -0.121497713, 0.226231441, -0.00396193471, 0.0880444124, 0.0116734663, 0.236451939, 0.0494664051, -0.0613835454, 0.130748123, -0.0572597012, 0.0116400719, -0.0588770546, -0.0880722851, 0.233137354, 0.0206943639, -0.152590573, -0.000967237633, 0.0175363142, -0.124914296, 0.350034624, 0.0280025899, -0.159743696, 0.363068312, -0.0302208476, 0.0642179027, 0.0106543098, -0.0764658079, -0.128256008, -0.127770752, 0.141764581, 0.0493931063, -0.276035309, -0.122563273, 0.031886179, -0.395382851, -0.0315463953, 0.227316216, 0.150062501, 0.0727275014, -0.119683705, 0.101775102, -0.0842094123, -0.105464272, 0.00516235037, 0.135391787, -0.0656434149, 0.276729286, 0.0676218718, 0.0340640508, 0.0860276595, -0.0505803451, -0.230665222, 0.351506025, 0.0715146214, 0.043410264, 0.0407158583, 0.0577340461, 0.0595046021, 0.0656843483, -0.174284011, -0.37069121, 0.176059932, -0.0578384772, -0.435678184, -0.0783426538, 0.0455407761, 0.047807321, -0.0256172791, 0.104493096, 0.173599601, 0.230910093, 0.332098842, 0.177414387, -0.222976133, -0.309367001, -0.207513452, -0.116377994, -0.079780899, 0.00780419866, -0.105978884, -0.166268289, -0.13199304, -0.0534087755, -0.0768509433, 0.0431805253, -0.193588033, 0.0473905653, 0.136819616, -0.126297906, -0.117349453, -0.067611441, 0.232788041, 0.0170871206, -0.25543803, 0.31052655, 0.0536264889, -0.0525513664, 0.401124746, 0.18927595, 0.0505885445, -0.522635043, -0.628549397, -0.256703734, -0.599416912, -0.670609832, -0.0162246451, -0.0842263773, -0.391101748, 0.0801467746, 0.129312441, -0.0394993424, -0.241374612, -0.13012296, 0.12752746, -0.0922415033, -0.0235260334, 0.19098641, 0.00902120676, 0.257481188, 0.271849781, 0.167805821, -0.226926193, 0.150042459, -0.112216711, -0.304803491, -0.0409456305, -0.230873212, -0.0839992464, -0.168558657, 0.24894613, -0.00313218334, 0.116949335, 0.190759346, -0.147637382, 0.141352981, 0.0468779951, -0.445411772, -0.315841198, -0.245472744, 0.0629687011, 0.0651751608, 0.0771197304, 0.0956515819, 0.143899933, -0.00175616227, 0.185562328, -0.179109856, 0.0114408657, -0.184868857, -0.232618779, -0.1234551, -0.267320812, -0.0885389671, -0.00521605834, 0.168865919, 0.132898271, 0.28468591, 0.257888377, 0.0473407805, -0.00343306782, 0.155492231, 0.211120382, 0.0630114079, 0.0279596355, -0.0886817798, 0.18346034, -0.20808202, -0.0205938183, -0.0157462768, 0.250108153, -0.0546944551, 0.0549075939, 0.0734477937, -0.253950715, -0.106396019, 0.133802623, -0.120173171, -0.0308768246, 0.0757997483, -0.0843349099, -0.00356436125, -0.154800177, 0.081324555, 0.233259603, -0.131870091, -0.0264226906, 0.107999288, -0.0970827341, -0.180530354, -0.140436947, 0.109841116, -0.0434736013, 0.0668282732, -0.0955224559, 0.0491754338, -0.0613607019, 0.0775543004, 0.0539916791, -0.242034107, -0.190220326, 0.0753579065, -0.168524399, 0.132597461, 0.294653326, -0.0810924247, 0.0924401656, 0.121383443, -0.118488863, -9.81876801e-05, -0.0431529507, 0.0398530252, 0.00219328632, -0.114255346, 0.148746476, 0.152933091, -0.0883152783, 0.114607915, 0.0012467826, 0.199770138, -0.103311017, 0.213055149, 0.0686300248, -0.143378913, -0.144057587, 0.139142185, -0.163224086, 0.0162777659, 0.0274059381, -0.0511042327, -0.0863654688, -0.391305178, -0.134289622, 0.0144507987, -0.27500996, -0.0392875746, -0.0384225324, 0.737062275, 0.368976891, 0.116472036, 0.455605984, 0.0746726841, -0.651758134, -0.43261081, -0.446452856, 0.024955973, 0.175556466, -0.128704354, -0.150801331, -0.0744864941, -0.20147258, -0.0431596786, 0.148901045, -0.20051685, -0.0444843844, 0.169447467, 0.0943620354, 0.20092237, -0.0481354855, 0.00499168877, 0.0630631372, -0.100256734, 0.0038701403, 0.249956667, 0.173666418, 0.185278028, 0.0399799123, -0.00980762485, 0.162120596, 0.240501687, 0.205662519, 0.276750356, -0.234585762, 0.0274054445, 0.0511618778, -0.249562547, -0.0642116517, 0.0417072065, -0.241744265, 0.158597305, -0.0392507128, 0.150968805, 0.208783954, -0.204545125, -0.0386844352, 0.00411750982, -0.140374064, 0.0669330731, -0.0198499542, -0.0181307737, 0.0760058835, -0.120787822, 0.0258533359, 0.0827775225, 0.18961288, 0.305713594, 0.140070215, -0.0314312726, 0.163685203, 0.171495825, 0.029591674, -0.0288545582, -0.0225888509, 0.0283985697, -0.0491476096, -0.00630095555, 0.0744833052, 0.0289093163, -0.232486904, -0.00588140311, -0.0862982497, -0.00858226977, 0.107787862, -0.117928468, -0.0290644299, 0.312148243, 0.0506979488, -0.185259193, 0.0874048248, -0.0709431767, 0.328806013, 0.176210895, -0.0174862128, 0.275453061, -0.0242119581, -0.156707823, 0.137131914, -0.0192343295, 0.132649362, -0.110211007, -0.104484744, -0.0727019981, -0.144002244, -0.338410735, -0.126148328, -0.112857379, -0.0977932811, -0.146988317, 0.0556733534, 0.0343244299, -0.142251015, 0.0696282014, 0.0149741117, -0.0374073833, -0.196582913, 0.020095678, 0.123524338, 0.0263882168, 0.0918379426, 0.0967205316, 0.20508042, 0.0343885422, 0.24638994, -0.277562618, -0.22808145, -0.18482466, 0.0549575947, 0.01176502, -0.0913396105, 0.0190806817, -0.0651347935, -0.0501355529, -0.146377191, -0.38597092, -0.393008441, -0.226526797, -0.456730306, -0.428360164, -0.138252676, -0.308538526, -0.277677685, 0.363107711, 0.324216098, 0.1265966, -0.138761714, -0.218559131, -0.164149463, -0.44029969, -0.455078214, -0.165562689, -0.255931884, -0.422857195, 0.322730929, -0.618164957, -0.690021873, -0.171933576, -0.0901171267, -0.315303952, 0.412679434, -0.338015676, -0.0287238769, 0.0193373747, -0.368664891, 0.199419364, -0.00205458887, -0.183446884, -0.152978301, -0.272517115, 0.153891325, 0.409937888, -0.119644932, -0.309372604, 0.0142803974, -0.179311216, -0.349206209, -0.188171104, -0.082178086, 0.00954531319, -0.0924679413, 0.0837867409, 0.170108989, -0.0200218186, 0.0645152181, 0.198048159, -0.185490295, -0.0361216925, 0.124435149, -0.0173031166, 0.197762936, -0.126550302, -0.197472155, -0.170389563, -0.105245836, -0.0906822011, -0.296374768, -0.0950183719, 0.254649192, 0.180849254, 0.147434071, 0.186773911, 0.148250312, 0.23954615, 0.105570316, 0.048883941, 0.135258004, 0.124056526, 0.110627025, -0.0613031387, 0.227986321, 0.141975969, 0.151439115, 0.236703888, 0.161633566, -0.405886352, -0.2040755, -0.0270925425, -0.345854014, 0.0307738557, 0.399940431, -0.406025827, 0.232053578, 0.709567845, 0.115455806, -0.10969948, 0.0929467455, 0.0914383754, -0.277711481, -0.160666779, -0.276511401, -0.0307640452, -0.194436714, -0.094667241, -0.141696081, -0.192198485, 0.117104106, -0.287987858, -0.0924861804, 0.171163768, -0.0279977415, -0.0267342497, -3.2416312e-05, -0.0699070022, 0.142997131, -0.209005117, -0.0250876378, 0.293299019, -0.166141152, -0.0584374219, 0.26573953, 0.034226276, -0.0269832332, -0.0180159323, -0.147401467, -0.0890341774, 0.015944019, 0.111202717, -0.0766176879, -0.150121793, 0.263879478, -0.0883653685, 0.0697446764, -0.0909601301, 0.14256148, -0.261412084, -0.388372868, 0.0407705903, -0.190568238, 0.118531212, -0.0335821323, 0.0678192601, -0.137843981, 0.225866124, 0.0611694865, 0.15294078, -0.0945771188, -0.0882585421, -0.111567818, -0.0579728857, -0.0396387801, 0.0663338155, 0.170211464, 0.0827316493, -0.152241632, 0.0192585401, 0.220681265, -0.306339264, -0.000587961287, -0.0209383108, 0.0549652018, 0.386598051, -0.00579800224, -0.0555049963, 0.225745559, -0.153085545, 0.600500643, -0.0924096406, -0.479211211, 0.292077482, -0.191763535, -0.33419162, -0.350901842, -0.357481301, 0.00269054831, 0.00514878519, 0.239143774, 0.0693883747, 0.0150074875, -0.00717121689, -0.0969217792, 0.0151268458, 0.130328208, 0.138075486, 0.0312995017, -0.239355162, -0.132485256, 0.0596036613, -0.0399975628, 0.0707699656, -0.129854262, -0.401494414, 0.186396465, 0.130443916, -0.159202173, 0.272652864, -0.346269697, -0.0664020106, -0.121125825, 0.0285259914, -0.294193953, -0.144246519, -0.171424091, 0.309320897, 0.600513816, 0.0311066005, -0.163691968, 0.0139809046, 0.284696072, -0.17924276, 0.0730234832, -0.132644996, -0.000268384523, -0.029582696, 0.0324799456, 0.211148411, 0.0375283994, -0.200747073, -0.148910701, -0.213835195, -0.00868703239, 0.0896973908, 0.0590948462, -0.212901011, -0.0730402172, -0.28557235, -0.40839985, -0.306433022, 0.0173753407, 0.205528155, 0.0527606159, -0.179339439, -0.0699458048, -0.156934872, -0.119208544, 0.277863383, -0.115875572, -0.0257704929, -0.121445909, -0.0295746159, -0.206059396, -0.0398664922, -0.126487225, -0.222119436, -0.158667475, -0.23451674, 0.107628956, 0.276653886, -0.18976, 0.229817435, -0.310541242, -0.071482271, -0.244039789, 0.219225168, 0.146099389, -0.144103959, 0.0494590066, -0.105122939, -0.0915535465, -0.276750237, 0.209061682, -0.316248983, 0.0881736353, -0.0893138796, 0.0883789062, -0.163140237, 0.233044416, 0.131744146, -0.11906819, -0.175134644, -0.197714552, -0.383838952, -0.323534369, -0.125522316, -0.116859198, -0.323249668, 0.0388543084, 0.127485633, 0.0407063663, -0.0954687297, -0.078215681, -0.105560482, -0.0275749564, 0.0420534089, -0.219836995, 0.0632208809, 0.0861195847, 0.21926178, -0.0868476182, -0.200725645, 0.0910320133, -0.133735448, -0.0357907042, -0.196341038, -0.401136994, -0.154275268, 0.0450654738, -0.15891774, -0.244901672, -0.203013346, -0.278512597, 0.158536494, -0.225467429, -0.262108564, -0.14652817, -0.480812669, -0.258079618, -0.143430501, -0.359576374, -8.67949566e-05, 0.169358283, 0.198833704, 0.0908386186, 0.127296641, -0.139146596, -0.300403148, 0.28695479, -0.0415454507, -0.0662710518, -0.169060439, 0.0366929211, -0.040591456, 0.0116078416, 0.471778929, -0.0949471369, -0.0573598035, 0.127605528, -0.353249073, -0.295454592, -0.0805947408, -0.120348699, -0.203216553, 0.211230576, -0.0928220451, 0.0035300157, 0.207785025, -0.0569102988, -0.292546272, -0.230135113, -0.436021119, -0.0627830178, -0.00671366369, -0.0116789928, -0.156732261, -0.25903371, -0.152087212, 0.0197950602, 0.0526045859, 0.0935886577, 0.34429428, 0.257608056, 0.0984678194, 0.353987426, 0.201730952, 0.00157269079, 0.0622926727, 0.111601979, -0.0311583895, -0.0877161026, 0.218439788, 0.0647353977, -0.21281001, -0.104554966, -0.0121252388, -0.060645666, -0.240575567, 0.0306579228, 0.0234301109, 0.128223926, -0.0696582422, 0.107630365, 0.170767605, 0.0572808087, 0.168344647, -0.0132771935, 0.0937515944, 0.29316622, 0.241210878, 0.110645793, 0.255224049, 0.0998367444, -0.078952238, 0.00803041086, -0.144675687, -0.266013891, -0.190051824, -0.247059226, -0.155890718, -0.138922945, -0.175269887, -0.0355150923, -0.162697554, 0.084434174, -0.00780526036, 0.0273785405, 0.0450093076, -0.0969546288, 0.191390052, -0.0932671353, -0.131534487, 0.202945694, -0.0444155857, -0.197607711, -0.342540592, -0.116811492, -0.176522464, -0.289110452, -0.234478027, 0.137113035, 0.447529584, -0.0513329543, 0.0545663573, 0.0332002677, 0.282952189, -0.0346976817, 0.0151526025, -0.178653985, -0.0537486412, -0.0262246858, -0.124640673, -0.138219625, -0.0710419565, -0.0753972158, -0.0296605993, 0.0145760989, -0.150947899, -0.13664037, 0.125519738, 0.0845063701, 0.242384538, -0.0743470863, 0.171551809, -0.044269681, 0.0389859714, 0.0324378014, 0.0576010384, 0.00766120106, 0.0888869241, -0.109767735, 0.175875053, -0.00838746876, -0.103234641, 0.17755802, 0.00326048722, -0.138455331, -0.115073934, 0.159730196, 0.143317699, -0.100796022, -0.127846673, -0.121420167, -0.276475012, 0.0298424345, -0.0282715466, -0.184412673, -0.279396057, -0.0543548316, 0.116441675, 0.103987284, 0.0335647985, -0.58278656, -0.517349303, 0.171199962, 0.036758475, -0.217293382, -0.0571521707, 0.0959326774, 0.123013012, 0.0708889142, -0.0790086612, 0.14099285, 0.389867365, 0.146631822, -0.395017475, -0.158132374, -0.0450650305, 0.0521675311, -0.153062299, 0.0280092116, 0.0626385659, -0.0613706112, 0.0914922729, -0.0171242133, 0.0648705661, 0.146015838, 0.210717469, 0.109879479, -0.0364408679, -0.12250939, -0.232884809, -0.128795534, -0.0129532367, -0.109982766, 0.0951305926, 0.424499661, -0.313073546, 0.116082728, -0.5394997, -0.157218769, 0.316213876, 0.235320851, 0.260536969, -0.13445273, -0.214545816, -0.116163246, 0.0229286272, 0.133225784, 0.209347501, 0.214374259, 0.0214542113, 0.109556951, -0.146650195, 0.14793767, -0.288449943, -0.02234561, -0.100694813, -0.0973541513, 0.00408032304, 0.0611053221, -0.0216323491, 0.109686345, 0.212923184, 0.282238662, 0.273272634, 0.135831907, 0.213075534, -0.0723881423, 0.0556487367, 0.0209732521, -0.14676179, 0.0558583103, -0.097006388, 0.387343884, 0.0584652424, -0.145191461, -0.0594079643, -0.236571029, -0.0845928118, 0.185037121, -0.211699411, -0.194692001, -0.0513579696, -0.188390911, 0.041534014, -0.0332126915, -0.135205761, 0.00977525767, -0.0790213794, 0.214771464, 0.0464268178, -0.0648457184, 0.0394509807, -0.158684134, 0.13043642, -0.263527662, 0.065726541, -0.00887631997, -0.0587950572, -0.047559116, -0.0251854789, 0.120885216, 0.0534272194, 0.100419901, 0.150533766, -0.112389535, 0.0297218822, -0.00936397072, -0.106408209, 0.118542179, 0.105615333, -0.0450190268, 0.154058978, 0.211172923, 0.0229156185, -0.22372523, -0.14196372, 0.00991422031, -0.143119857, 0.0164456256, -0.0603889413, 0.393511474, 0.357409418, -0.013105928, 0.0771975964, 0.071323216, -0.2056714, -0.296201825, 0.0338131674, -0.0870356783, 0.184879109, -0.0357368067, -0.131790593, 0.069176726, 0.033269465, -0.0688886866, -0.189070508, -0.293013394, -0.244797036, 0.139668077, 0.0569391474, -0.0953490585, 0.247261971, 0.168776587, 0.101957373, -0.045327615, 0.187115356, -0.140105307, -0.171818912, -0.125743687, -0.171276912, -0.286329478, 5.84532972e-06, -0.106138423, -0.232397959, 0.226029798, 0.0124869151, 0.115299523, -0.176775903, -0.157834977, 0.149814397, -0.418044358, -0.114097491, 0.171038464, -0.227523357, -0.1402639, 0.285371214, -0.0378486663, 0.206754625, -0.0175174493, -0.0383005179, -0.0761959553, -0.285912842, 0.010266901, -0.116131611, -0.435814768, -0.335351318, -0.685435474, -0.176863015, 0.367135882, 0.0554357059, -0.530351758, -0.388876885, -0.132074416, 0.00497333333, 0.232061893, 0.100370653, 0.0791230351, 0.0391885005, -0.075022988, -0.197647318, -0.197348833, -0.0958207473, 0.390956551, 0.118657976, 0.242892995, -0.257963359, -0.0456531197, 0.283851326, -0.0519756973, -0.192911327, 0.364495635, 0.153385475, -0.16763787, -0.00902203564, 0.0640482977, 0.196712747, 0.245575279, -0.12231975, -0.273904383, -0.308891237, -0.123376906, -0.284600228, -0.371569693, -0.0461640023, 0.0469157659, 0.120416202, -0.374454945, -0.383591622, -0.114477739, -0.0982742608, 0.0315439962, 0.00846762676, 0.214212388, 0.413704365, -0.0724811256, 0.0130669493, 0.0653588399, -0.17349273, -0.0866694152, -0.182985052, 0.048307348, -0.052332256, -0.174655095, -0.00437957468, 0.0490442477, -0.0346543565, -0.00869136956, -0.297316462, -0.20018819, 0.111514054, -0.380052716, -0.150498271, 0.0942417607, 0.201745346, 0.18723236, -0.121968098, 0.0825692192, -0.126838863, -0.108323365, 0.124800488, 0.281014711, 0.109110832, -0.153598845, -0.141801059, 0.0131646767, 0.271499515, -0.025375206, -0.113811962, -0.0386544801, 0.0117772995, -0.0995166749, -0.0479934029, 0.160412341, 0.0848200917, -0.261158288, 0.0624704845, -0.0123217534, -0.231371462, -0.172328159, 0.0874067917, -0.0981125832, 0.0263419244, -0.0524074733, 0.0850510299, 0.149579078, 0.471989214, 0.117446601, 0.013156374, 0.00515308511, 0.223163411, 0.167991325, -0.0167297088, -0.0614913739, -0.129480287, -0.17113626, 0.238858074, -0.106706731, -0.0598697253, -0.0570436306, 0.0371488333, 0.0347615592, -0.135376826, 0.00750715425, 0.0363572612, -0.0777393356, -0.188448295, 0.0389375985, 0.0203838721, -0.0204738174, -0.15014492, 0.0425127223, 0.0174630359, 0.0862169117, 0.363291919, 0.210621491, 0.0786786377, -0.266657203, -0.0965604037, -0.0370949768, -0.00696824305, 0.238519028, -0.123339541, -0.0775595829, 0.427934527, 0.0348792225, -0.191454902, -0.200809062, 0.0139761381, -0.00746442657, -0.0976905376, -0.170325339, 0.100271709, -0.0866367072, -0.0835121125, 0.101386011, 0.208532512, 0.0731605515, -0.146463484, -0.0941440761, -0.0210386571, -0.129670888, -0.289922148, -0.0962176025, 0.0277267918, -0.129182354, -0.0886783227, -0.0773919523, 0.253774345, -0.0459353775, 0.0781612545, 0.433097482, 0.0528894737, -0.113338888, -0.158582076, 0.0531768687, -0.0138324946, -0.119570971, 0.12855041, -0.22112973, -0.179582894, 0.120856278, -0.0199169312, 0.0675080866, -0.0694183409, -0.211045817, -0.0826753378, 0.0771287978, -0.0505103245, -0.161687449, 0.0320834368, -0.0368437693, 0.0878527984, -0.167221546, -0.057710547, 0.00870654546, 0.368895233, -0.236049876, -0.367092639, 0.00172402395, 0.126303256, 0.022770701, -0.175289497, 0.161738008, 0.0375425555, -0.0686578676, -0.0435740836, 0.00281720026, 0.0905556902, -0.0266721509, -0.0864473283, -0.109238118, 0.0370558165, -0.0393794067, 0.0606064461, -0.0447447523, -0.0930312499, -0.195254549, -0.00103488273, 0.15436019, -0.304754794, -0.180696025, 0.0905200541, 0.218107909, -0.00825338531, -0.160622731, 0.0499801859, 0.129232794, 0.0567584932, -0.136382684, 0.00438647624, -0.128368318, 0.205396682, -0.00754832011, -0.13621451, 0.142570436, -0.283292502, -0.0632141083, 0.128405035, -0.0994528085, 0.0435199998, -0.183857441, -0.12151207, -0.0724291876, -0.100900583, -0.282449186, 0.0604494251, 0.0209087003, 0.387301624, 0.0542604886, -0.00393796712, 0.510785103, 0.455186993, -0.058386527, -0.215062886, 0.147418484, 0.0874368399, 0.0697639138, -0.0287725534, 0.12163838, 0.157016322, -0.00374668278, -0.0433371328, 0.0557197295, -0.0277582444, 0.180630326, -0.170588195, 0.110776886, -0.35983929, 0.173183113, -0.0356917381, -0.13203074, -0.0404411964, -0.0862410516, -0.0110461274, -0.115024939, 0.0192846041, -0.0845794901, 0.0431049764, -0.0484770052, -0.122335047, -0.156415805, 0.206325963, 0.23167108, 0.0286666714, -0.139860332, 0.00872808881, -0.20745343, -0.262273967, -0.0052736057, -0.00786894094, -0.0168110933, 0.157526776, -0.0702824667, 0.0731257126, 0.0697777271, -0.133863524, -0.252031356, -0.11629343, 0.278481662, 0.107645392, 0.154558197, 0.0197027251, -0.00835626666, 0.00748245232, -0.191172302, -0.116883039, -0.138725847, -0.0759783313, -0.14917396, -0.0941484571, -0.340499997, -0.209229037, 0.0229359493, -0.41212225, -0.415996373, 0.00153825292, 0.0183783621, -0.0254337266, -0.00957300421, -0.0559918992, -0.170283094, 0.0397079997, -0.148379982, -0.340138674, 0.0775287151, 0.411754817, 0.0225097258, -0.166515306, 0.406292945, -0.0390266739, -0.0780669749, 0.28843078, 0.539129674, 0.178922802, -0.275176823, -0.0389027111, 0.0962607339, 0.0816647857, 0.068979837, -0.121612668, -0.10714259, 0.0985179842, 0.0510668531, 0.00222219992, -0.192197144, -0.155295476, 0.190807477, 0.21324268, -0.138646975, 0.395857453, 0.398250699, 0.00602509128, -0.13875851, 0.170053199, 0.105145842, 0.0396375023, 0.0234107375, -0.016020475, 0.12809889, 0.248189583, -0.138872772, -0.159687296, -0.249498591, 0.0347863808, 0.174098015, -0.0703133345, 0.093800202, 0.0737029687, -0.186682612, -0.0184230246, -0.192657337, 0.0750152618, 0.137685955, 0.305054367, -0.163290396, -0.14692679, 0.48032999, 0.307441235, -0.287732214, -0.200045839, 0.075229682, 0.112571977, -0.279971033, -0.20438844, -0.0193758905, -0.343665779, -0.385821283, -0.20695366, 0.0354114696, -0.0807166845, 0.076126717, -0.045564808, -0.00969025306, 0.459616005, 0.0954838917, -0.259682566, -0.30888316, 0.203411818, 0.172643036, -0.156505391, -0.0456502028, 0.121307142, -0.127070129, 0.0440135039, 0.0580807105, 0.324748278, 0.0510617383, 0.15726687, -0.0434555002, -0.549485207, -0.0271494482, 0.0914474577, -0.511028051, -0.4870691, -0.207995817, -0.00386610604, 0.0170744695, 0.00484186877, -0.0572012737, -0.0745595023, -0.0323221572, -0.0446520746, 0.0539446436, -0.1085767, -0.167409882, 0.141679719, 0.166462436, -0.00929690525, 0.246170178, 0.22589393, -0.0829302445, -0.306390703, 0.122334473, -0.00260579959, -0.059006311, 0.181962222, 0.0209415536, 0.061195232, 0.157111466, -0.153806999, -0.150224552, 0.0403038338, 0.127497226, 0.0326701812, -0.0375810452, -0.00684088841, -0.480161995, 0.188633531, 0.126307383, 0.0870995894, -0.0449185111, -0.074680686, 0.181146085, 0.289178669, 0.14765954, -0.0440792628, 0.0319541879, 0.00651751738, 0.057448104, 0.189436048, -0.0663993657, -0.0778059959, 0.0198946912, -0.0428004786, -0.0119739939, 0.0170648023, -0.238105431, -0.171840221, 0.097568132, 0.167314738, 0.112751089, 0.157860562, -0.151536256, 0.0186386164, 0.0406686328, -0.422247648, -0.236076817, 0.0845408961, 0.0380949415, -0.0815116465, -0.0736712441, 0.0225860849, 0.00427299691, 0.236018822, -0.190958694, -0.160450503, -0.189875707, 0.206892267, 0.190351695, 0.0132600432, -0.041634839, -0.0313488096, -0.129729167, 0.0381218605, 0.191563591, 0.0339406319, -0.0140080079, 0.132382601, 0.0794496983, -0.00992626976, -0.016554255, 0.0632605925, 0.00801921822, 0.0745932162, -0.0482252315, -0.131720304, 0.0754428655, 0.0242783707, 0.280128926, -0.131880894, -0.0305612739, 0.144549176, 0.44359982, -0.0316069275, -0.436321795, -0.209245324, 0.152244523, -0.0460984893, -0.123544954, -0.183916435, 0.0226389915, 0.104845054, -0.00791909266, -0.26203531, -0.0887080953, 0.0878819153, -0.000230993319, -0.0123167913, -0.156596705, 0.246808812, 0.077205874, -0.254831761, 0.164404407, 0.242363527, 0.00419588434, 0.0257618222, 0.276300341, -0.0944025293, -0.106930479, 0.144090772, 0.0836949646, -0.0911709145, 0.0126849459, -0.241547793, -0.149484873, -0.226001874, 0.345937788, 0.0457318313, -0.417600304, -0.0480475463, 0.040840663, 0.331847161, -0.223836333, 0.237290591, -0.0388952456, -0.257563025, 0.0391886123, 0.292143106, 0.0099511696, -0.131917819, 0.00554599008, 0.0447831564, -0.182874501, -0.0455407239, 0.0416222662, 0.109374896, -0.118326962, -0.0551136993, 0.241359055, -0.0219471604, -0.177223429, 0.271877229, -0.0905926526, -0.0554772094, 0.143196791, 0.0798252076, -0.242507547, 0.147707731, 0.128655359, 0.0514255017, -0.374092937, 0.147843689, -0.179824874, -0.252462268, -0.0366073735, -0.00379215227, -0.109066747, -0.086761184, 0.0664453506, 0.112773888, -0.136095434, -0.192242265, 0.241474733, 0.170262173, 0.0121075464, 0.0892562345, 0.147353381, -0.078491427, 0.0281332005, 0.138402432, 0.116127476, 0.00181238365, -0.266449124, 0.226837352, 0.00772725465, -0.0970209911, -0.00533803506, -0.0580419824, 0.0888028145, -0.0102657489, 0.195506692, 0.0217276774, -0.0594663769, -0.0156016909, -0.0124011412, 0.0260771215, -0.335957557, -0.131147102, -0.0829496309, -0.0347923636, 0.204978272, -0.0899856165, -0.105287671, -0.0657044947, 0.128498003, 0.111563735, -0.295172542, -0.120899387, 0.248637736, -0.0149708204, -0.212497652, 0.202122703, 0.137830734, -0.0816759616, -0.243289545, -0.0651096404, 0.325549662, -0.253486544, -0.342898667, 0.31823653, 0.0272773262, -0.00521726999, 0.250502676, -0.220466271, -0.11084751, 0.189780459, -0.0764691681, -0.240194932, -0.250260592, 0.0535877272, 0.020137189, 0.187768579, -0.234877601, -0.272344023, -0.277653396, -0.00984324329, -0.105466992, -0.213061541, 0.18693912, 0.0520270504, -0.209408596, 0.0508497581, -0.117195308, -0.193389922, -0.015417764, 0.32606861, -0.119459406, -0.114969559, -0.00728039863, -0.261413187, -0.364694864, 0.34924975, 0.244915873, 0.10413748, 0.0210814774, 0.0909816623, -0.146724939, 0.0799705461, 0.0703563467, -0.261712015, -0.0321343951, 0.0653938279, 0.144904971, -0.0188377034, 0.00294462848, -0.0318705961, -0.0473571382, -0.0657829866, -0.491585851, -0.183857858, 0.57025063, -0.122787029, -0.0601042956, 0.338426709, 0.136497274, -0.178326175, 0.0908197537, 0.220184922, 0.197300524, -0.434406102, 0.14895907, 0.176300332, -0.230997548, -0.189276159, 0.0511388518, 0.161825269, -0.0148613025, 0.332037747, -0.0502706617, -0.242192462, 0.176277742, 0.242650762, -0.187762097, 0.11449381, 0.260836244, 0.0399355479, 0.39096716, 0.0992949829, 0.475466222, 0.430960327, 0.149339467, -0.10042458, 0.155234888, -0.121347703, 0.350758046, -0.576903343, -0.0512691438, 0.240240157, -0.390685529, -0.114350431, 0.202320635, -0.311178744, -0.0129265226, 0.138868243, -0.0234593153, 0.0140164271, 0.0791164711, -0.0766991675, -0.165372565, 0.126715153, -0.082859613, 0.0768225342, -0.0246394165, 0.271122813, 0.134196699, -0.0708999038, 0.0591185354, 0.271193415, -0.323558837, 0.110236295, -0.116769902, 0.0115048001, -0.0387197658, 0.164991409, 0.0501029342, -0.0919619054, 0.0313318297, -0.255116284, -0.264832824, 0.171204641, -0.393204331, 0.0921014696, 0.222723901, -0.18046622, -0.265828311, 0.165966049, -0.249139905, -0.133240908, 0.0511251353, 0.366189986, 0.0383020528, 0.288325936, -0.00672896951, 0.165075749, -0.298727691, 0.00208745268, -0.0949539989, -0.0294300579, -0.229487583, 0.0724034235, 0.10887257, -0.308823675, -0.113157824, 0.0045832335, 0.116488591, -0.0833060667, 0.161120072, 0.0425550565, -0.00373784569, 0.0108720483, 0.133388892, -0.201464489, 0.0309628043, 0.175695449, -0.0281934515, 0.103989914, -0.282432556, -0.299945474, -0.302012682, -0.0386057533, -0.207693264, -0.0621862821, 0.166539416, 0.017711306, -0.160903439, 0.0322152749, -0.0678733513, 0.0359112062, 0.0435043983, -0.0348193273, -0.233418658, -0.170176774, 0.0179197099, 0.14611201, -0.352794409, -0.113044456, -0.0992250443, 0.149254337, -0.0031943738, -0.214868501, -0.0308204144, -0.0966755599, 0.174016267, 0.255586267, 0.289610058, 0.0263626203, 0.069122538, 0.352066159, 0.112262107, -0.120706975, 0.0840018615, -0.137682572, -0.346352249, 0.169922829, 0.423947066, -0.198552147, -0.0455137417, 0.081538178, 0.149472177, -0.00965368934, -0.138821661, 0.117047697, -0.208395213, -0.117313355, 0.0909038335, -0.134547129, -0.19290787, 0.0971052796, -0.10536278, 0.0115894498, 0.565014362, -0.0137132751, -0.20698908, 0.063375935, 0.0927713439, 0.188528419, -0.0942428783, -0.113932684, -0.0406296812, -0.487419963, -0.306508482, -0.182136804, 0.167143494, -0.211417913, 0.0609777346, -0.301451325, -0.233378172, 0.0835762471, 0.192826375, -0.099530533, 0.00873787235, 0.102806203, -0.187546492, -0.201411784, 0.281292826, -0.281329334, 0.0753358305, 0.0671324879, -0.147101283, -0.301963389, -0.0465601757, -0.0107567962, -0.301831841, 0.0195326563, -0.0793593228, -0.0276978686, 0.0258879215, -0.263404697, -0.100044705, -0.1908876, -0.0609054454, -0.0387205184, 0.11323826, 0.00508286245, 0.153730169, -0.140593722, -0.240545943, -0.237945274, 0.042933099, -0.0419754684, 0.121459492, 0.0340866446, 0.00966469944, 0.0961592942, -0.331659198, 0.0871009678, 0.238669932, 0.0204535052, -0.00304785045, -0.156554878, -0.0836075619, 0.0975209102, 0.0155208316, -0.000721963355, 0.0697552338, 0.134237275, -0.261244178, 0.0204623193, 0.183996335, -0.128272429, -0.249583244, 0.08626993, -0.256723821, 